booster[0]
0:[v50<1.01313] yes=1,no=2,missing=1,gain=148.074,cover=989.75
	1:[v79<2.5] yes=3,no=4,missing=3,gain=24.2991,cover=418.5
		3:[v71<1.5] yes=7,no=8,missing=7,gain=2.7357,cover=56.5
			7:[v19<0.160451] yes=15,no=16,missing=15,gain=4.19646,cover=16.25
				15:[v9<8.16977] yes=31,no=32,missing=31,gain=4.03727,cover=10.5
					31:[v40<11.4482] yes=55,no=56,missing=55,gain=2.98214,cover=9.5
						55:[v40<9.11475] yes=89,no=90,missing=89,gain=3.86881,cover=7
							89:leaf=0.00105263,cover=3.75
							90:leaf=0.0152941,cover=3.25
						56:[v40<13.0486] yes=91,no=92,missing=91,gain=2.11429,cover=2.5
							91:leaf=-0.01,cover=1
							92:leaf=0.004,cover=1.5
					32:leaf=-0.01,cover=1
				16:[v109<1.82077] yes=33,no=34,missing=33,gain=2.32528,cover=5.75
					33:leaf=-0,cover=1
					34:leaf=0.0165217,cover=4.75
			8:[v101<9.07778] yes=17,no=18,missing=17,gain=2.7468,cover=40.25
				17:[v50<0.236227] yes=35,no=36,missing=35,gain=1.72807,cover=37
					35:[v22<2895] yes=57,no=58,missing=57,gain=2.16667,cover=2
						57:leaf=0.01,cover=1
						58:leaf=-0.005,cover=1
					36:[v114<16.4536] yes=59,no=60,missing=59,gain=1.47802,cover=35
						59:[v50<0.971315] yes=93,no=94,missing=93,gain=1.01626,cover=33.75
							93:leaf=0.015969,cover=31.25
							94:leaf=0.00571429,cover=2.5
						60:leaf=0.00222222,cover=1.25
				18:[v59<13.702] yes=37,no=38,missing=37,gain=3.88877,cover=3.25
					37:leaf=-0.00545455,cover=1.75
					38:leaf=0.012,cover=1.5
		4:[v79<4.5] yes=9,no=10,missing=9,gain=23.9062,cover=362
			9:[v40<13.3261] yes=19,no=20,missing=19,gain=24.3242,cover=163.75
				19:[v50<0.411562] yes=39,no=40,missing=39,gain=11.7124,cover=130.25
					39:[v5<9.88925] yes=61,no=62,missing=61,gain=5.20655,cover=38.75
						61:[v101<6.68605] yes=95,no=96,missing=95,gain=5.76813,cover=35
							95:leaf=0.000162602,cover=29.75
							96:leaf=-0.0104,cover=5.25
						62:[v25<1.06835] yes=97,no=98,missing=97,gain=2.99081,cover=3.75
							97:leaf=0.0142857,cover=2.5
							98:leaf=-0.00222222,cover=1.25
					40:[v114<15.7187] yes=63,no=64,missing=63,gain=7.89104,cover=91.5
						63:[v118<9.63209] yes=99,no=100,missing=99,gain=6.23219,cover=72
							99:leaf=0.005625,cover=63
							100:leaf=-0.003,cover=9
						64:[v12<6.04199] yes=101,no=102,missing=101,gain=6.68166,cover=19.5
							101:leaf=-0.00666667,cover=1.25
							102:leaf=0.0132468,cover=18.25
				20:[v50<0.486391] yes=41,no=42,missing=41,gain=6.04772,cover=33.5
					41:[v12<6.3069] yes=65,no=66,missing=65,gain=3.78571,cover=14
						65:leaf=0.005,cover=1
						66:[v40<16.6565] yes=103,no=104,missing=103,gain=4.44505,cover=13
							103:leaf=-0.0130769,cover=12
							104:leaf=0.005,cover=1
					42:[v79<3.5] yes=67,no=68,missing=67,gain=4.45612,cover=19.5
						67:[v22<1136.5] yes=105,no=106,missing=105,gain=5.15121,cover=16.25
							105:leaf=-0.00727273,cover=4.5
							106:leaf=0.00431373,cover=11.75
						68:[v40<14.5601] yes=107,no=108,missing=107,gain=0.0898398,cover=3.25
							107:leaf=-0.0127273,cover=1.75
							108:leaf=-0.004,cover=1.5
			10:[v9<10.3517] yes=21,no=22,missing=21,gain=12.6957,cover=198.25
				21:[v50<0.129851] yes=43,no=44,missing=43,gain=8.00529,cover=170
					43:[v22<3046.5] yes=69,no=70,missing=69,gain=6.13825,cover=6.75
						69:[v40<8.43969] yes=109,no=110,missing=109,gain=2.37363,cover=4.25
							109:leaf=-0,cover=2
							110:leaf=-0.0138462,cover=2.25
						70:[v22<4083.5] yes=111,no=112,missing=111,gain=1.02857,cover=2.5
							111:leaf=0.012,cover=1.5
							112:leaf=-0,cover=1
					44:[v10<2.3523] yes=71,no=72,missing=71,gain=5.88171,cover=163.25
						71:[v79<7] yes=113,no=114,missing=113,gain=8.79877,cover=144.75
							113:leaf=0.00987212,cover=96.75
							114:leaf=0.0044898,cover=48
						72:[v73<2.81049] yes=115,no=116,missing=115,gain=1.78535,cover=18.5
							115:leaf=0.0154286,cover=16.5
							116:leaf=0.00333333,cover=2
				22:[v73<2.84482] yes=45,no=46,missing=45,gain=8.51016,cover=28.25
					45:[v53<15.5964] yes=73,no=74,missing=73,gain=7.38885,cover=16
						73:[v128<1.32208] yes=117,no=118,missing=117,gain=2.49351,cover=6
							117:leaf=-0,cover=1.5
							118:leaf=-0.0145455,cover=4.5
						74:[v109<2.88287] yes=119,no=120,missing=119,gain=5.30303,cover=10
							119:leaf=-0.005,cover=5
							120:leaf=0.00833333,cover=5
					46:[v19<0.198491] yes=75,no=76,missing=75,gain=7.62868,cover=12.25
						75:leaf=0.0152,cover=5.25
						76:[v109<1.51904] yes=121,no=122,missing=121,gain=5.6,cover=7
							121:leaf=-0.00933333,cover=2.75
							122:leaf=0.00666667,cover=4.25
	2:[v50<1.8744] yes=5,no=6,missing=5,gain=32.8565,cover=571.25
		5:[v12<5.94056] yes=11,no=12,missing=11,gain=8.61791,cover=286.25
			11:[v22<2357.5] yes=23,no=24,missing=23,gain=0.666667,cover=2
				23:leaf=-0.01,cover=1
				24:leaf=-0,cover=1
			12:[v18<3.16453] yes=25,no=26,missing=25,gain=8.0343,cover=284.25
				25:[v129<8.00001] yes=47,no=48,missing=48,gain=7.17802,cover=283.25
					47:[v22<3966] yes=77,no=78,missing=77,gain=2.9853,cover=52.25
						77:[v120<2.8246] yes=123,no=124,missing=123,gain=2.85186,cover=41.25
							123:leaf=0.0170909,cover=40.25
							124:leaf=-0,cover=1
						78:[v10<2.86652] yes=125,no=126,missing=125,gain=5.92266,cover=11
							125:leaf=0.0165217,cover=4.75
							126:leaf=0.00206897,cover=6.25
					48:[v12<8.34996] yes=79,no=80,missing=79,gain=7.267,cover=231
						79:[v9<9.58619] yes=127,no=128,missing=127,gain=3.35811,cover=225
							127:leaf=0.011918,cover=169.75
							128:leaf=0.00862222,cover=55.25
						80:[v53<16.237] yes=129,no=130,missing=129,gain=4.8,cover=6
							129:leaf=-0.006,cover=4
							130:leaf=0.01,cover=2
				26:leaf=-0.01,cover=1
		6:[v129<2.5] yes=13,no=14,missing=14,gain=2.14829,cover=285
			13:[v3<1.5] yes=27,no=28,missing=27,gain=0.178994,cover=93.25
				27:leaf=0.005,cover=1
				28:[v12<10.4319] yes=49,no=50,missing=49,gain=0.193724,cover=92.25
					49:[v22<4896.5] yes=81,no=82,missing=81,gain=0.208919,cover=91.25
						81:[v127<6.46262] yes=131,no=132,missing=131,gain=0.393105,cover=90.25
							131:leaf=0.0186517,cover=88
							132:leaf=0.00769231,cover=2.25
						82:leaf=0.005,cover=1
					50:leaf=0.005,cover=1
			14:[v12<8.72774] yes=29,no=30,missing=29,gain=3.32387,cover=191.75
				29:[v53<16.6845] yes=51,no=52,missing=51,gain=3.02577,cover=186.25
					51:[v24<2.5] yes=83,no=84,missing=83,gain=2.29296,cover=179.25
						83:[v73<3.1605] yes=133,no=134,missing=133,gain=6.56167,cover=19.75
							133:leaf=0.0134247,cover=17.25
							134:leaf=-0.00285714,cover=2.5
						84:[v50<2.27863] yes=135,no=136,missing=135,gain=0.56615,cover=159.5
							135:leaf=0.01456,cover=61.5
							136:leaf=0.0174747,cover=98
					52:[v44<12.2231] yes=85,no=86,missing=85,gain=5.31818,cover=7
						85:[v111<3.0173] yes=137,no=138,missing=137,gain=3.91111,cover=5.25
							137:leaf=0.016,cover=4
							138:leaf=-0.00222222,cover=1.25
						86:leaf=-0.00545455,cover=1.75
				30:[v12<8.96262] yes=53,no=54,missing=53,gain=6.33846,cover=5.5
					53:leaf=-0.008,cover=1.5
					54:[v50<2.67185] yes=87,no=88,missing=87,gain=0.977778,cover=4
						87:leaf=0.00222222,cover=1.25
						88:leaf=0.0146667,cover=2.75
booster[1]
0:[v50<0.842932] yes=1,no=2,missing=1,gain=158.211,cover=993.46
	1:[v47<4.5] yes=3,no=4,missing=3,gain=48.8995,cover=337.742
		3:[v73<2.29508] yes=7,no=8,missing=7,gain=10.0041,cover=153.995
			7:[v130<3.24949] yes=15,no=16,missing=15,gain=5.97602,cover=102.247
				15:[v123<2.25242] yes=29,no=30,missing=29,gain=5.71376,cover=100.997
					29:[v88<3.32363] yes=53,no=54,missing=53,gain=5.94392,cover=79.9974
						53:[v34<8.58914] yes=93,no=94,missing=93,gain=5.17529,cover=76.4974
							93:leaf=0.0113808,cover=68.2477
							94:leaf=0.00262191,cover=8.24975
						54:[v37<0.366116] yes=95,no=96,missing=95,gain=6.33387,cover=3.49994
							95:leaf=0.0110856,cover=1.24998
							96:leaf=-0.0108133,cover=2.24996
					30:[v83<1.28299] yes=55,no=56,missing=55,gain=1.24879,cover=20.9993
						55:leaf=0.00394847,cover=1.49997
						56:[v115<13.4847] yes=97,no=98,missing=97,gain=2.17692,cover=19.4993
							97:leaf=0.0178168,cover=18.2493
							98:leaf=0.00218443,cover=1.24996
				16:leaf=-0.00670506,cover=1.24997
			8:[v92<1.05485] yes=17,no=18,missing=17,gain=7.08567,cover=51.7483
				17:[v50<0.249431] yes=31,no=32,missing=31,gain=8.11385,cover=49.2483
					31:[v18<1.01739] yes=57,no=58,missing=57,gain=3.25101,cover=4.49986
						57:leaf=-0.0114475,cover=2.49992
						58:leaf=0.0032855,cover=1.99993
					32:[v58<0.942568] yes=59,no=60,missing=59,gain=6.22173,cover=44.7485
						59:[v62<1.5] yes=99,no=100,missing=100,gain=8.39271,cover=4.74985
							99:leaf=-0.0138889,cover=2.24995
							100:leaf=0.00850854,cover=2.4999
						60:[v50<0.723351] yes=101,no=102,missing=101,gain=7.09372,cover=39.9986
							101:leaf=0.0107047,cover=33.7488
							102:leaf=-0.000752504,cover=6.24983
				18:[v58<18.295] yes=33,no=34,missing=33,gain=0.309829,cover=2.49994
					33:leaf=-0.00226934,cover=1.24997
					34:leaf=-0.0111625,cover=1.24997
		4:[v114<10.8517] yes=9,no=10,missing=9,gain=17.6261,cover=183.747
			9:[v50<0.47612] yes=19,no=20,missing=19,gain=9.4741,cover=35.4992
				19:[v98<9.23403] yes=35,no=36,missing=35,gain=4.67353,cover=17.4994
					35:[v14<10.9361] yes=61,no=62,missing=61,gain=1.52005,cover=15.4994
						61:[v50<0.252366] yes=103,no=104,missing=103,gain=5.78057,cover=4.24988
							103:leaf=0.0080056,cover=1.49997
							104:leaf=-0.0119402,cover=2.74991
						62:[v24<4.5] yes=105,no=106,missing=105,gain=2.94735,cover=11.2496
							105:leaf=-0.00536544,cover=4.49982
							106:leaf=-0.017323,cover=6.74974
					36:leaf=0.00336864,cover=1.99995
				20:[v114<8.29157] yes=37,no=38,missing=37,gain=4.09355,cover=17.9998
					37:[v94<4.06347] yes=63,no=64,missing=63,gain=3.93287,cover=6.49996
						63:[v113<20.5] yes=107,no=108,missing=107,gain=2.83665,cover=4.74997
							107:leaf=-0.013331,cover=3.49997
							108:leaf=0.00219807,cover=1.24999
						64:leaf=0.00542663,cover=1.74999
					38:[v105<0.593336] yes=65,no=66,missing=65,gain=2.92732,cover=11.4998
						65:[v58<1.32346] yes=109,no=110,missing=109,gain=4.69847,cover=8.74988
							109:leaf=0.000739807,cover=5.74992
							110:leaf=0.0149911,cover=2.99996
						66:[v58<18.5577] yes=111,no=112,missing=111,gain=2.56763,cover=2.74996
							111:leaf=-0.0110907,cover=1.24998
							112:leaf=0.00399101,cover=1.49998
			10:[v50<0.414496] yes=21,no=22,missing=21,gain=13.3782,cover=148.248
				21:[v114<16.9316] yes=39,no=40,missing=39,gain=13.6548,cover=59.9994
					39:[v14<10.9361] yes=67,no=68,missing=67,gain=7.83374,cover=50.2495
						67:[v14<10.2336] yes=113,no=114,missing=113,gain=7.5712,cover=12.7499
							113:leaf=-1.12392e-05,cover=5.49994
							114:leaf=-0.0151603,cover=7.24992
						68:[v56<8.5] yes=115,no=116,missing=115,gain=4.16369,cover=37.4996
							115:leaf=-0.00855638,cover=4.24995
							116:leaf=0.00100822,cover=33.2497
					40:[v94<3.1605] yes=69,no=70,missing=69,gain=4.41489,cover=9.74993
						69:[v56<62] yes=117,no=118,missing=117,gain=2.8929,cover=8.24995
							117:leaf=0.0166388,cover=4.99998
							118:leaf=0.00351846,cover=3.24998
						70:leaf=-0.00397792,cover=1.49998
				22:[v92<0.893089] yes=41,no=42,missing=41,gain=8.06812,cover=88.2486
					41:[v49<7.66216] yes=71,no=72,missing=71,gain=6.26282,cover=84.4987
						71:[v92<0.537268] yes=119,no=120,missing=119,gain=4.58228,cover=57.7491
							119:leaf=0.00493275,cover=54.9991
							120:leaf=-0.0067072,cover=2.74995
						72:[v11<16.6976] yes=121,no=122,missing=121,gain=4.85495,cover=26.7496
							121:leaf=0.0113993,cover=24.7496
							122:leaf=-0.00337085,cover=1.99998
					42:[v115<10.6438] yes=73,no=74,missing=73,gain=4.03872,cover=3.74995
						73:leaf=-0.0138578,cover=2.24998
						74:leaf=0.00396841,cover=1.49997
	2:[v50<1.8744] yes=5,no=6,missing=5,gain=39.5501,cover=655.718
		5:[v47<6.5] yes=11,no=12,missing=11,gain=18.7334,cover=372.737
			11:[v115<17.5714] yes=23,no=24,missing=23,gain=9.67098,cover=220.492
				23:[v23<19.4989] yes=43,no=44,missing=43,gain=6.5405,cover=218.992
					43:[v49<9.017] yes=75,no=76,missing=75,gain=6.76248,cover=216.242
						75:[v18<1.56442] yes=123,no=124,missing=123,gain=3.66476,cover=203.742
							123:leaf=0.0143781,cover=194.992
							124:leaf=0.00658758,cover=8.7497
						76:[v27<2.54215] yes=125,no=126,missing=125,gain=7.00359,cover=12.4996
							125:leaf=0.00847421,cover=11.2496
							126:leaf=-0.0111499,cover=1.24997
					44:[v61<10.9079] yes=77,no=78,missing=77,gain=4.31173,cover=2.74992
						77:leaf=-0.0111739,cover=1.24996
						78:leaf=0.00794241,cover=1.49996
				24:leaf=-0.00805849,cover=1.49996
			12:[v114<15.6023] yes=25,no=26,missing=25,gain=13.5888,cover=152.246
				25:[v24<4.5] yes=45,no=46,missing=45,gain=8.31996,cover=118.497
					45:[v37<0.617426] yes=79,no=80,missing=79,gain=16.9531,cover=41.999
						79:[v94<3.78113] yes=127,no=128,missing=127,gain=6.74907,cover=24.2494
							127:leaf=0.000965069,cover=17.9995
							128:leaf=-0.0104172,cover=6.24986
						80:[v88<1.18903] yes=129,no=130,missing=129,gain=4.8019,cover=17.7496
							129:leaf=0.00158762,cover=4.99986
							130:leaf=0.0133851,cover=12.7497
					46:[v18<1.73263] yes=81,no=82,missing=81,gain=8.34098,cover=76.4979
						81:[v113<9.5] yes=131,no=132,missing=131,gain=6.21877,cover=75.2479
							131:leaf=0.00458588,cover=22.4994
							132:leaf=0.0111611,cover=52.7486
						82:leaf=-0.0111322,cover=1.24998
				26:[v113<27.5] yes=47,no=48,missing=47,gain=4.41405,cover=33.7489
					47:[v113<6.5] yes=83,no=84,missing=83,gain=3.216,cover=26.9991
						83:leaf=0.00174716,cover=1.74994
						84:[v18<1.32624] yes=133,no=134,missing=133,gain=2.10711,cover=25.2492
							133:leaf=0.0174969,cover=23.9992
							134:leaf=0.00218065,cover=1.24997
					48:[v14<11.735] yes=85,no=86,missing=85,gain=3.69617,cover=6.74979
						85:[v50<1.57215] yes=135,no=136,missing=135,gain=1.23772,cover=3.74989
							135:leaf=0.00281305,cover=2.49993
							136:leaf=-0.00673301,cover=1.24996
						86:leaf=0.0124345,cover=2.99991
		6:[v37<2.37647] yes=13,no=14,missing=13,gain=3.25782,cover=282.98
			13:[v113<16] yes=27,no=28,missing=27,gain=1.49025,cover=281.231
				27:[v114<17.8427] yes=49,no=50,missing=49,gain=4.57243,cover=201.486
					49:[v90<1.38724] yes=87,no=88,missing=87,gain=1.50957,cover=199.986
						87:[v50<1.88908] yes=137,no=138,missing=137,gain=0.659569,cover=198.486
							137:leaf=0.00813528,cover=3.24983
							138:leaf=0.0175453,cover=195.236
						88:leaf=0.00392425,cover=1.49991
					50:leaf=-0.00010429,cover=1.49989
				28:[v50<2.2779] yes=51,no=52,missing=51,gain=4.94463,cover=79.7448
					51:[v34<7.15319] yes=89,no=90,missing=89,gain=7.07311,cover=27.2486
						89:[v45<8.551] yes=139,no=140,missing=139,gain=5.23725,cover=15.4992
							139:leaf=0.00920725,cover=10.2495
							140:leaf=-0.00249851,cover=5.24976
						90:[v14<10.5808] yes=141,no=142,missing=141,gain=0.231868,cover=11.7494
							141:leaf=0.00656983,cover=1.99989
							142:leaf=0.0170763,cover=9.74947
					52:[v115<13.1769] yes=91,no=92,missing=91,gain=3.40988,cover=52.4962
						91:[v92<1.04403] yes=143,no=144,missing=143,gain=2.12365,cover=49.7464
							143:leaf=0.0174121,cover=48.4965
							144:leaf=0.00219318,cover=1.24996
						92:[v117<7.37215] yes=145,no=146,missing=145,gain=2.57951,cover=2.74981
							145:leaf=-0.00407953,cover=1.4999
							146:leaf=0.0110177,cover=1.24991
			14:leaf=0.00173393,cover=1.7499
booster[2]
0:[v47<4.5] yes=1,no=2,missing=1,gain=72.4487,cover=1009.34
	1:[v31<2.5] yes=3,no=4,missing=3,gain=14.8464,cover=522.151
		3:[v99<2.40999] yes=7,no=8,missing=7,gain=5.57874,cover=326.949
			7:[v34<5.40373] yes=15,no=16,missing=15,gain=4.72119,cover=324.949
				15:[v36<16.6173] yes=25,no=26,missing=25,gain=6.11144,cover=111.232
					25:[v10<0.525164] yes=43,no=44,missing=43,gain=4.33958,cover=109.732
						43:[v102<1.34522] yes=71,no=72,missing=71,gain=4.37139,cover=9.49895
							71:leaf=-0.00108026,cover=4.24957
							72:leaf=0.0118331,cover=5.24937
						44:[v68<19.2912] yes=73,no=74,missing=73,gain=2.53582,cover=100.234
							73:leaf=0.0150523,cover=94.4845
							74:leaf=0.0064591,cover=5.74904
					26:leaf=-0.00407168,cover=1.49989
				16:[v34<5.43145] yes=27,no=28,missing=27,gain=7.32377,cover=213.717
					27:[v40<11.4514] yes=45,no=46,missing=45,gain=2.54936,cover=2.74965
						45:leaf=0.00386609,cover=1.49981
						46:leaf=-0.0111907,cover=1.24985
					28:[v72<1.5] yes=47,no=48,missing=48,gain=5.87558,cover=210.967
						47:[v112<3.5] yes=75,no=76,missing=75,gain=6.2245,cover=121.732
							75:leaf=0.00220197,cover=11.4984
							76:leaf=0.0101546,cover=110.233
						48:[v13<5.95976] yes=77,no=78,missing=77,gain=5.53846,cover=89.2352
							77:leaf=0.0135792,cover=86.2357
							78:leaf=-0.000181097,cover=2.99949
			8:leaf=-0.00344142,cover=1.99981
		4:[v103<8.07152] yes=9,no=10,missing=9,gain=4.75662,cover=195.203
			9:[v40<5.99016] yes=17,no=18,missing=17,gain=2.89689,cover=193.953
				17:leaf=0.0016831,cover=1.74976
				18:[v23<3.83933] yes=29,no=30,missing=29,gain=1.80262,cover=192.203
					29:[v127<5.55084] yes=49,no=50,missing=49,gain=1.82275,cover=188.954
						49:[v40<8.14051] yes=79,no=80,missing=79,gain=1.26089,cover=177.706
							79:leaf=0.0115045,cover=15.9965
							80:leaf=0.0165031,cover=161.709
						50:[v11<15.3368] yes=81,no=82,missing=81,gain=4.11492,cover=11.2481
							81:leaf=0.0132898,cover=8.24848
							82:leaf=-0.000142055,cover=2.99957
					30:[v127<2.00123] yes=51,no=52,missing=51,gain=4.78868,cover=3.24931
						51:leaf=-0.00671039,cover=1.24988
						52:leaf=0.0131132,cover=1.99944
			10:leaf=-0.00234512,cover=1.24981
	2:[v114<16.339] yes=5,no=6,missing=5,gain=33.1775,cover=487.193
		5:[v10<1.34573] yes=11,no=12,missing=11,gain=28.2021,cover=406.956
			11:[v114<8.90747] yes=19,no=20,missing=19,gain=15.794,cover=288.474
				19:[v40<15.9088] yes=31,no=32,missing=31,gain=7.13299,cover=23.9982
					31:[v112<12] yes=53,no=54,missing=53,gain=3.72099,cover=9.24936
						53:[v21<7.16359] yes=83,no=84,missing=83,gain=1.32512,cover=6.9995
							83:leaf=-0.0149413,cover=4.99965
							84:leaf=-0.00331602,cover=1.99986
						54:leaf=0.00150299,cover=2.24986
					32:[v114<7.96951] yes=55,no=56,missing=55,gain=7.08119,cover=14.7488
						55:[v99<1.18006] yes=85,no=86,missing=85,gain=3.67613,cover=12.2492
							85:leaf=-0.00454291,cover=9.99938
							86:leaf=0.00761768,cover=2.24986
						56:leaf=0.0141155,cover=2.49959
				20:[v40<6.89458] yes=33,no=34,missing=33,gain=13.2022,cover=264.476
					33:[v21<7.1875] yes=57,no=58,missing=57,gain=1.90637,cover=4.74975
						57:leaf=-0.0142917,cover=2.49992
						58:leaf=-0.00164295,cover=2.24983
					34:[v56<78.5] yes=59,no=60,missing=59,gain=9.60515,cover=259.726
						59:[v103<5.01863] yes=87,no=88,missing=87,gain=8.8725,cover=226.728
							87:leaf=0.00527227,cover=160.735
							88:leaf=0.00970455,cover=65.993
						60:[v127<3.02846] yes=89,no=90,missing=89,gain=6.57596,cover=32.998
							89:leaf=-0.00215866,cover=22.9986
							90:leaf=0.0071831,cover=9.99942
			12:[v114<12.7232] yes=21,no=22,missing=21,gain=10.6409,cover=118.481
				21:[v11<15.4697] yes=35,no=36,missing=35,gain=14.0373,cover=38.2456
					35:[v40<12.1999] yes=61,no=62,missing=61,gain=11.1693,cover=26.4968
						61:[v10<1.72866] yes=91,no=92,missing=91,gain=1.63845,cover=3.24993
							91:leaf=-0.0100445,cover=1.99995
							92:leaf=0.00218652,cover=1.24998
						62:[v127<4.99507] yes=93,no=94,missing=93,gain=7.12901,cover=23.2469
							93:leaf=0.0137217,cover=21.997
							94:leaf=-0.00676635,cover=1.24989
					36:[v56<26.5] yes=63,no=64,missing=63,gain=7.40115,cover=11.7488
						63:leaf=0.010611,cover=2.24962
						64:[v10<1.89278] yes=95,no=96,missing=95,gain=5.72138,cover=9.49916
							95:leaf=-0.0117531,cover=6.24957
							96:leaf=0.00338179,cover=3.24959
				22:[v40<10.5191] yes=37,no=38,missing=37,gain=4.95014,cover=80.2359
					37:[v114<14.5616] yes=65,no=66,missing=65,gain=8.63498,cover=58.2407
						65:[v40<9.7757] yes=97,no=98,missing=97,gain=5.94323,cover=15.4985
							97:leaf=-0.0040612,cover=5.24978
							98:leaf=0.00826213,cover=10.2487
						66:[v131<4.16241] yes=99,no=100,missing=99,gain=3.7656,cover=42.7422
							99:leaf=0.013777,cover=40.7426
							100:leaf=-0.000181112,cover=1.9996
					38:[v113<31] yes=67,no=68,missing=67,gain=0.142815,cover=21.9952
						67:leaf=0.0178052,cover=19.7456
						68:leaf=0.00754972,cover=2.24966
		6:[v28<11.6496] yes=13,no=14,missing=13,gain=3.87545,cover=80.2375
			13:[v124<0.595093] yes=23,no=24,missing=23,gain=3.30953,cover=78.9876
				23:[v113<1.5] yes=39,no=40,missing=39,gain=1.6989,cover=74.9882
					39:leaf=0.00324947,cover=1.9999
					40:[v56<9] yes=69,no=70,missing=69,gain=2.47524,cover=72.9883
						69:leaf=0.00176472,cover=1.74991
						70:[v99<1.65761] yes=101,no=102,missing=101,gain=1.93031,cover=71.2383
							101:leaf=0.0152948,cover=68.2387
							102:leaf=0.00484585,cover=2.99961
				24:[v58<13.5903] yes=41,no=42,missing=41,gain=4.34607,cover=3.99943
					41:leaf=-0.00474255,cover=2.2497
					42:leaf=0.0125786,cover=1.74973
			14:leaf=-0.00224911,cover=1.24994
booster[3]
0:[v50<1.0234] yes=1,no=2,missing=1,gain=153.73,cover=1009.93
	1:[v113<3.5] yes=3,no=4,missing=3,gain=33.0717,cover=423.171
		3:[v86<2.03181] yes=7,no=8,missing=7,gain=8.35849,cover=184.201
			7:[v50<0.317659] yes=15,no=16,missing=15,gain=5.68718,cover=175.953
				15:[v21<7.35567] yes=29,no=30,missing=29,gain=5.52695,cover=29.9933
					29:[v43<2.11125] yes=55,no=56,missing=55,gain=5.80446,cover=21.246
						55:[v50<0.2553] yes=83,no=84,missing=83,gain=8.07687,cover=15.2474
							83:leaf=0.00361407,cover=10.7481
							84:leaf=-0.011081,cover=4.49933
						56:[v83<1.23307] yes=85,no=86,missing=85,gain=2.84645,cover=5.99863
							85:leaf=-0.00227653,cover=1.24994
							86:leaf=0.0128234,cover=4.7487
					30:[v88<2.40492] yes=57,no=58,missing=57,gain=4.4723,cover=8.74728
						57:[v50<0.179004] yes=87,no=88,missing=87,gain=0.480303,cover=6.9976
							87:leaf=0.00527313,cover=1.7496
							88:leaf=0.0164791,cover=5.24799
						58:leaf=-0.00196119,cover=1.74968
				16:[v88<4.47447] yes=31,no=32,missing=31,gain=5.51436,cover=145.959
					31:[v18<1.99519] yes=59,no=60,missing=59,gain=4.36035,cover=144.709
						59:[v61<17.1683] yes=89,no=90,missing=89,gain=3.94739,cover=141.96
							89:leaf=0.0109471,cover=139.71
							90:leaf=-0.00171455,cover=2.24953
						60:[v7<2.55927] yes=91,no=92,missing=91,gain=2.51473,cover=2.74953
							91:leaf=-0.00809672,cover=1.49984
							92:leaf=0.0065266,cover=1.24969
					32:leaf=-0.00672296,cover=1.2499
			8:[v50<0.495195] yes=17,no=18,missing=17,gain=8.98665,cover=8.24862
				17:[v12<6.90762] yes=33,no=34,missing=33,gain=0.773373,cover=3.49954
					33:leaf=-0.0139814,cover=2.24971
					34:leaf=-0.00231397,cover=1.24983
				18:[v100<0.242455] yes=35,no=36,missing=35,gain=5.42186,cover=4.74908
					35:leaf=-0.00674975,cover=1.24989
					36:leaf=0.0131113,cover=3.49919
		4:[v114<16.4448] yes=9,no=10,missing=9,gain=26.6907,cover=238.969
			9:[v50<0.420366] yes=19,no=20,missing=19,gain=23.4747,cover=204.978
				19:[v12<7.92087] yes=37,no=38,missing=37,gain=9.33744,cover=64.2448
					37:[v56<3] yes=61,no=62,missing=61,gain=5.33879,cover=61.9953
						61:[v40<9.55503] yes=93,no=94,missing=93,gain=3.84967,cover=8.74922
							93:leaf=0.00182307,cover=1.74997
							94:leaf=-0.0136199,cover=6.99925
						62:[v56<27.5] yes=95,no=96,missing=95,gain=11.1278,cover=53.2461
							95:leaf=0.0117976,cover=3.99918
							96:leaf=-0.00389016,cover=49.2469
					38:leaf=0.0136492,cover=2.24949
				20:[v40<15.0286] yes=39,no=40,missing=39,gain=18.2177,cover=140.733
					39:[v56<45.5] yes=63,no=64,missing=63,gain=6.07617,cover=125.984
						63:[v122<6.99975] yes=97,no=98,missing=97,gain=7.39587,cover=56.2421
							97:leaf=0.00979873,cover=43.9938
							98:leaf=0.000950607,cover=12.2483
						64:[v2<2.92481] yes=99,no=100,missing=99,gain=9.84585,cover=69.7423
							99:leaf=-0.00120474,cover=27.4975
							100:leaf=0.00641066,cover=42.2448
					40:[v113<20.5] yes=65,no=66,missing=65,gain=6.16007,cover=14.7484
						65:[v124<1.99468] yes=101,no=102,missing=101,gain=2.54945,cover=10.7488
							101:leaf=-0.0113166,cover=9.49895
							102:leaf=0.00225592,cover=1.24983
						66:[v50<0.700609] yes=103,no=104,missing=103,gain=1.5332,cover=3.99959
							103:leaf=0.00899536,cover=1.74973
							104:leaf=-0.00156733,cover=2.24986
			10:[v7<2.39083] yes=21,no=22,missing=21,gain=5.15087,cover=33.9918
				21:[v40<2.51755] yes=41,no=42,missing=41,gain=2.25288,cover=27.2428
					41:[v40<2.28203] yes=67,no=68,missing=67,gain=4.5617,cover=4.49901
						67:leaf=0.0117718,cover=2.7493
						68:leaf=-0.00560944,cover=1.74971
					42:[v12<7.13802] yes=69,no=70,missing=69,gain=0.929373,cover=22.7438
						69:leaf=0.015469,cover=20.2445
						70:[v12<7.67378] yes=105,no=106,missing=105,gain=1.75955,cover=2.49929
							105:leaf=-0.00238424,cover=1.24968
							106:leaf=0.0109314,cover=1.24961
				22:[v81<6.80235] yes=43,no=44,missing=43,gain=5.32666,cover=6.74901
					43:leaf=0.0117865,cover=2.74934
					44:[v102<1.59955] yes=71,no=72,missing=71,gain=2.15499,cover=3.99967
						71:leaf=0.00389946,cover=1.49987
						72:[v101<6.65104] yes=107,no=108,missing=107,gain=0.313268,cover=2.49981
							107:leaf=-0.00226573,cover=1.24988
							108:leaf=-0.0111839,cover=1.24992
	2:[v50<1.84799] yes=5,no=6,missing=5,gain=26.7565,cover=586.754
		5:[v56<1.5] yes=11,no=12,missing=11,gain=6.64461,cover=283.914
			11:[v113<11] yes=23,no=24,missing=23,gain=5.8353,cover=18.2467
				23:[v122<6.22175] yes=45,no=46,missing=45,gain=7.20159,cover=4.99945
					45:[v50<1.29851] yes=73,no=74,missing=73,gain=2.05006,cover=2.74967
						73:leaf=-0.00232706,cover=1.24986
						74:leaf=0.0118651,cover=1.4998
					46:leaf=-0.0139724,cover=2.24978
				24:[v50<1.0997] yes=47,no=48,missing=47,gain=4.24577,cover=13.2473
					47:leaf=-0.00352428,cover=1.99958
					48:[v89<1.87575] yes=75,no=76,missing=75,gain=3.84587,cover=11.2477
						75:[v21<6.38501] yes=109,no=110,missing=109,gain=0.547725,cover=9.49796
							109:leaf=0.00381316,cover=1.49963
							110:leaf=0.0141959,cover=7.99833
						76:leaf=-0.00194791,cover=1.74975
			12:[v12<6.01661] yes=25,no=26,missing=25,gain=4.54212,cover=265.667
				25:[v50<1.15472] yes=49,no=50,missing=49,gain=3.81943,cover=5.24895
					49:leaf=-0.00817447,cover=1.49963
					50:[v21<6.05562] yes=77,no=78,missing=77,gain=2.85277,cover=3.74932
						77:leaf=-0.0019565,cover=1.74976
						78:leaf=0.0131607,cover=1.99957
				26:[v60<3.09616] yes=51,no=52,missing=51,gain=4.01034,cover=260.418
					51:[v119<15.873] yes=79,no=80,missing=79,gain=3.88109,cover=258.669
						79:[v56<15] yes=111,no=112,missing=111,gain=4.06876,cover=252.17
							111:leaf=0.0157951,cover=37.986
							112:leaf=0.0116796,cover=214.184
						80:[v119<17.0298] yes=113,no=114,missing=113,gain=10.8785,cover=6.49876
							113:leaf=-0.00946612,cover=2.7497
							114:leaf=0.0134515,cover=3.74907
					52:leaf=-0.00200471,cover=1.74957
		6:[v1<4.97361] yes=13,no=14,missing=13,gain=3.0747,cover=302.841
			13:[v68<19.6447] yes=27,no=28,missing=27,gain=1.8357,cover=301.091
				27:[v123<12.6459] yes=53,no=54,missing=53,gain=1.85087,cover=299.842
					53:[v77<9.96774] yes=81,no=82,missing=81,gain=1.8717,cover=298.592
						81:[v50<2.28743] yes=115,no=116,missing=115,gain=0.732875,cover=296.343
							115:leaf=0.0145548,cover=95.9583
							116:leaf=0.0168091,cover=200.385
						82:leaf=0.00437545,cover=2.24924
					54:leaf=0.00201233,cover=1.24948
				28:leaf=0.00201113,cover=1.2495
			14:leaf=0.00163435,cover=1.74955
booster[4]
0:[v129<12] yes=1,no=2,missing=2,gain=63.332,cover=991.943
	1:[v103<8.38113] yes=3,no=4,missing=3,gain=4.69949,cover=207.565
		3:[v86<2.09285] yes=7,no=8,missing=7,gain=3.33592,cover=206.315
			7:[v122<10.2982] yes=13,no=14,missing=13,gain=2.38345,cover=202.817
				13:[v114<17.1068] yes=25,no=26,missing=25,gain=1.78196,cover=199.819
					25:[v68<19.6184] yes=45,no=46,missing=45,gain=1.80341,cover=198.57
						45:[v22<4736] yes=73,no=74,missing=73,gain=1.74536,cover=197.32
							73:leaf=0.0160479,cover=191.325
							74:leaf=0.00811787,cover=5.99542
						46:leaf=0.00197917,cover=1.24933
					26:leaf=0.00197602,cover=1.2493
				14:[v43<1.78758] yes=27,no=28,missing=27,gain=2.98392,cover=2.99786
					27:leaf=0.011659,cover=1.4987
					28:leaf=-0.00423441,cover=1.49916
			8:[v54<0.782388] yes=15,no=16,missing=15,gain=4.31235,cover=3.49854
				15:leaf=0.0124267,cover=1.74895
				16:leaf=-0.00557696,cover=1.74959
		4:leaf=-0.00237464,cover=1.24968
	2:[v113<3.5] yes=5,no=6,missing=5,gain=18.4381,cover=784.378
		5:[v72<1.5] yes=9,no=10,missing=10,gain=13.0206,cover=305.075
			9:[v30<6.5] yes=17,no=18,missing=17,gain=5.50394,cover=205.893
				17:[v29<10.4341] yes=29,no=30,missing=29,gain=6.79288,cover=175.41
					29:[v48<12.9566] yes=47,no=48,missing=47,gain=6.17757,cover=172.911
						47:[v5<7.76748] yes=75,no=76,missing=75,gain=3.97103,cover=132.929
							75:leaf=0.00845067,cover=86.2039
							76:leaf=0.0124575,cover=46.7251
						48:[v111<4.68293] yes=77,no=78,missing=77,gain=6.99758,cover=39.9818
							77:leaf=0.00118709,cover=21.2399
							78:leaf=0.00952156,cover=18.7419
					30:[v35<10.3813] yes=49,no=50,missing=49,gain=1.71834,cover=2.49928
						49:leaf=0.00203968,cover=1.24957
						50:leaf=-0.0112685,cover=1.2497
				18:[v22<223.5] yes=31,no=32,missing=31,gain=7.87149,cover=30.4829
					31:leaf=-0.00685987,cover=1.24957
					32:[v114<15.8035] yes=51,no=52,missing=51,gain=1.51108,cover=29.2333
						51:[v19<0.162116] yes=79,no=80,missing=79,gain=1.87402,cover=27.9839
							79:leaf=0.00981972,cover=10.2443
							80:leaf=0.0174321,cover=17.7396
						52:leaf=0.00199159,cover=1.24935
			10:[v69<11.4952] yes=19,no=20,missing=19,gain=8.80939,cover=99.1822
				19:[v24<2.5] yes=33,no=34,missing=33,gain=4.85986,cover=91.6868
					33:[v22<1700] yes=53,no=54,missing=53,gain=5.13502,cover=10.4931
						53:leaf=0.015365,cover=3.74713
						54:[v48<12.7335] yes=81,no=82,missing=81,gain=5.54558,cover=6.74598
							81:leaf=-0.00516105,cover=4.24734
							82:leaf=0.0111232,cover=2.49864
					34:[v103<8.23657] yes=55,no=56,missing=55,gain=1.13599,cover=81.1937
						55:[v114<17.6386] yes=83,no=84,missing=83,gain=1.1581,cover=79.6944
							83:leaf=0.0160934,cover=78.195
							84:leaf=0.00380439,cover=1.49939
						56:leaf=0.0037558,cover=1.49933
				20:[v22<1839] yes=35,no=36,missing=35,gain=9.82446,cover=7.49533
					35:[v43<1.75159] yes=57,no=58,missing=57,gain=1.11986,cover=4.2471
						57:leaf=0.00192694,cover=1.24907
						58:leaf=0.0146361,cover=2.99803
					36:[v116<2.59442] yes=59,no=60,missing=59,gain=2.5314,cover=3.24824
						59:leaf=-0.0136198,cover=1.99907
						60:leaf=0.00197514,cover=1.24916
		6:[v114<8.90747] yes=11,no=12,missing=11,gain=30.3984,cover=479.303
			11:[v130<1.54329] yes=21,no=22,missing=21,gain=7.58145,cover=28.2426
				21:[v68<17.1227] yes=37,no=38,missing=37,gain=5.88328,cover=18.995
					37:[v112<11.5] yes=61,no=62,missing=61,gain=5.23102,cover=15.996
						61:[v22<3192] yes=85,no=86,missing=85,gain=2.46303,cover=9.49764
							85:leaf=-9.0798e-05,cover=4.49853
							86:leaf=-0.00989936,cover=4.99911
						62:[v5<7.13157] yes=87,no=88,missing=87,gain=5.51233,cover=6.49836
							87:leaf=0.00994052,cover=4.99863
							88:leaf=-0.00811965,cover=1.49973
					38:leaf=0.0122939,cover=2.99899
				22:[v48<15.28] yes=39,no=40,missing=39,gain=3.71617,cover=9.24766
					39:[v22<2731] yes=63,no=64,missing=63,gain=1.30627,cover=6.99825
						63:leaf=-0.0148647,cover=4.99893
						64:leaf=-0.00330787,cover=1.99932
					40:leaf=0.00154124,cover=2.24941
			12:[v114<16.4575] yes=23,no=24,missing=23,gain=20.2219,cover=451.06
				23:[v22<4252.5] yes=41,no=42,missing=41,gain=10.4613,cover=378.856
					41:[v49<9.53455] yes=65,no=66,missing=65,gain=8.52336,cover=318.881
						65:[v103<8.5267] yes=89,no=90,missing=89,gain=8.03392,cover=311.883
							89:leaf=0.00708386,cover=308.383
							90:leaf=-0.00676829,cover=3.49926
						66:[v78<14.5374] yes=91,no=92,missing=91,gain=6.0024,cover=6.99822
							91:leaf=0.00758928,cover=2.24939
							92:leaf=-0.00959692,cover=4.74884
					42:[v24<3.5] yes=67,no=68,missing=67,gain=5.81141,cover=59.9755
						67:[v87<6.79657] yes=93,no=94,missing=93,gain=7.14321,cover=8.74695
							93:leaf=-0.0102019,cover=1.99929
							94:leaf=0.00809902,cover=6.74766
						68:[v130<2.92518] yes=95,no=96,missing=95,gain=2.67977,cover=51.2285
							95:leaf=0.0134121,cover=45.4805
							96:leaf=0.00493838,cover=5.74805
				24:[v43<2.29979] yes=43,no=44,missing=43,gain=4.90223,cover=72.2043
					43:[v1<2.08738] yes=69,no=70,missing=69,gain=1.3903,cover=60.2095
						69:[v112<17.5] yes=97,no=98,missing=97,gain=1.01411,cover=58.9599
							97:leaf=0.0156811,cover=45.9679
							98:leaf=0.0102884,cover=12.992
						70:leaf=0.00207427,cover=1.24963
					44:[v121<1.84287] yes=71,no=72,missing=71,gain=4.51917,cover=11.9948
						71:[v112<13.5] yes=99,no=100,missing=99,gain=4.60566,cover=3.49848
							99:leaf=0.00635968,cover=1.9988
							100:leaf=-0.012122,cover=1.49968
						72:[v19<0.184209] yes=101,no=102,missing=101,gain=4.68078,cover=8.49628
							101:leaf=0.0141316,cover=6.24688
							102:leaf=-0.00169938,cover=2.24939
booster[5]
0:[v47<4.5] yes=1,no=2,missing=1,gain=81.7918,cover=1000.67
	1:[v79<4] yes=3,no=4,missing=3,gain=13.2705,cover=516.943
		3:[v26<3.45416] yes=7,no=8,missing=7,gain=5.66311,cover=229.954
			7:[v103<6.8489] yes=15,no=16,missing=15,gain=1.95613,cover=228.205
				15:[v12<10.88] yes=29,no=30,missing=29,gain=1.64373,cover=219.215
					29:[v22<4927] yes=53,no=54,missing=53,gain=1.01148,cover=217.966
						53:[v21<10.2801] yes=91,no=92,missing=91,gain=0.417592,cover=216.467
							91:leaf=0.0152648,cover=213.471
							92:leaf=0.00694996,cover=2.9958
						54:leaf=0.00364664,cover=1.49867
					30:leaf=0.00188398,cover=1.24875
				16:[v96<5.68644] yes=31,no=32,missing=31,gain=6.79477,cover=8.99078
					31:[v43<2.74353] yes=55,no=56,missing=55,gain=4.41453,cover=6.74298
						55:leaf=0.016379,cover=5.49377
						56:leaf=-0.00244172,cover=1.24921
					32:leaf=-0.00501289,cover=2.2478
			8:leaf=-0.00212843,cover=1.74868
		4:[v92<1.21263] yes=9,no=10,missing=9,gain=7.30712,cover=286.989
			9:[v12<6.48705] yes=17,no=18,missing=17,gain=7.43468,cover=283.491
				17:[v10<0.776806] yes=33,no=34,missing=33,gain=8.60171,cover=102.653
					33:[v120<1.12948] yes=57,no=58,missing=57,gain=5.40084,cover=42.47
						57:[v21<6.2373] yes=93,no=94,missing=93,gain=4.35779,cover=31.9784
							93:leaf=0.0017903,cover=10.2434
							94:leaf=0.0098523,cover=21.7349
						58:[v43<2.72519] yes=95,no=96,missing=95,gain=0.0359587,cover=10.4916
							95:leaf=0.0173502,cover=8.24317
							96:leaf=0.00735527,cover=2.24844
					34:[v68<19.3621] yes=59,no=60,missing=59,gain=2.95918,cover=60.1834
						59:[v12<6.03856] yes=97,no=98,missing=97,gain=1.57701,cover=57.186
							97:leaf=0.00359771,cover=1.49828
							98:leaf=0.0170814,cover=55.6877
						60:[v103<5.95184] yes=99,no=100,missing=99,gain=4.40853,cover=2.99744
							99:leaf=0.0123368,cover=1.74825
							100:leaf=-0.00690102,cover=1.24919
				18:[v10<2.12254] yes=35,no=36,missing=35,gain=10.1196,cover=180.837
					35:[v23<0.00441849] yes=61,no=62,missing=61,gain=11.8942,cover=106.67
						61:[v86<2.04151] yes=101,no=102,missing=101,gain=8.74546,cover=96.6756
							101:leaf=0.00953049,cover=94.4264
							102:leaf=-0.00790838,cover=2.24917
						62:[v80<3.08893] yes=103,no=104,missing=103,gain=9.10374,cover=9.99456
							103:leaf=0.00535525,cover=5.99667
							104:leaf=-0.0123592,cover=3.99789
					36:[v68<19.355] yes=63,no=64,missing=63,gain=4.70542,cover=74.1671
						63:[v103<8.21509] yes=105,no=106,missing=105,gain=3.96094,cover=71.6691
							105:leaf=0.0137746,cover=70.4198
							106:leaf=-0.00246146,cover=1.24935
						64:[v126<1.56893] yes=107,no=108,missing=107,gain=1.9525,cover=2.49792
							107:leaf=-0.00686688,cover=1.24927
							108:leaf=0.00631356,cover=1.24864
			10:[v108<1.82312] yes=19,no=20,missing=19,gain=4.32818,cover=3.49886
				19:leaf=0.00776649,cover=1.49928
				20:leaf=-0.0101523,cover=1.99958
	2:[v12<6.44881] yes=5,no=6,missing=5,gain=34.3653,cover=483.727
		5:[v10<0.754924] yes=11,no=12,missing=11,gain=16.0289,cover=199.364
			11:[v81<7.62665] yes=21,no=22,missing=21,gain=21.3699,cover=35.237
				21:[v12<6.16883] yes=37,no=38,missing=37,gain=7.36452,cover=26.9889
					37:[v12<6.05499] yes=65,no=66,missing=65,gain=3.98545,cover=15.742
						65:[v12<5.82432] yes=109,no=110,missing=109,gain=4.56413,cover=6.74627
							109:leaf=0.0139442,cover=2.49832
							110:leaf=-0.00122334,cover=4.24794
						66:leaf=0.0166462,cover=8.99571
					38:[v103<4.48302] yes=67,no=68,missing=67,gain=5.03498,cover=11.2469
						67:[v12<6.24918] yes=111,no=112,missing=111,gain=2.33786,cover=9.24757
							111:leaf=-0.0076867,cover=2.99938
							112:leaf=0.00188872,cover=6.24819
						68:leaf=0.0131116,cover=1.99937
				22:[v10<0.536106] yes=39,no=40,missing=39,gain=5.5737,cover=8.24811
					39:[v2<9.02737] yes=69,no=70,missing=69,gain=3.84681,cover=6.99879
						69:leaf=-0.0156218,cover=5.74924
						70:leaf=0.00203491,cover=1.24955
					40:leaf=0.00642619,cover=1.24932
			12:[v21<6.54838] yes=23,no=24,missing=23,gain=7.27731,cover=164.127
				23:[v103<8.27319] yes=41,no=42,missing=41,gain=4.46279,cover=57.9523
					41:[v6<2.89617] yes=71,no=72,missing=71,gain=2.73327,cover=56.7028
						71:[v92<0.965618] yes=113,no=114,missing=113,gain=1.70512,cover=52.9557
							113:leaf=0.015866,cover=51.706
							114:leaf=0.00209756,cover=1.2497
						72:[v24<3.5] yes=115,no=116,missing=115,gain=6.37849,cover=3.74712
							115:leaf=-0.00811351,cover=1.49907
							116:leaf=0.0134717,cover=2.24806
					42:leaf=-0.00241345,cover=1.24946
				24:[v88<3.59745] yes=43,no=44,missing=43,gain=7.12231,cover=106.175
					43:[v125<43.5] yes=73,no=74,missing=73,gain=5.12904,cover=102.926
						73:[v80<2.93777] yes=117,no=118,missing=117,gain=5.91556,cover=47.4663
							117:leaf=0.00919838,cover=38.7217
							118:leaf=0.000101522,cover=8.74467
						74:[v119<0.0448057] yes=119,no=120,missing=119,gain=3.54218,cover=55.4597
							119:leaf=0.00958322,cover=31.227
							120:leaf=0.0155622,cover=24.2327
					44:[v21<7.14358] yes=75,no=76,missing=75,gain=3.44736,cover=3.24877
						75:leaf=0.00644643,cover=1.24933
						76:leaf=-0.0102043,cover=1.99943
		6:[v10<1.84902] yes=13,no=14,missing=13,gain=45.9105,cover=284.363
			13:[v78<12.9187] yes=25,no=26,missing=25,gain=14.6202,cover=222.921
				25:[v113<21.5] yes=45,no=46,missing=45,gain=7.40819,cover=148.691
					45:[v21<7.15205] yes=77,no=78,missing=77,gain=10.0225,cover=95.472
						77:[v83<2.50446] yes=121,no=122,missing=121,gain=7.7753,cover=54.9854
							121:leaf=0.0010152,cover=51.7363
							122:leaf=-0.0130464,cover=3.24913
						78:[v90<0.912055] yes=123,no=124,missing=123,gain=6.57533,cover=40.4866
							123:leaf=0.00381727,cover=29.7413
							124:leaf=0.0128832,cover=10.7453
					46:[v113<23.5] yes=79,no=80,missing=79,gain=15.2142,cover=53.2195
						79:[v109<3.12651] yes=125,no=126,missing=125,gain=4.29261,cover=20.7312
							125:leaf=0.0150541,cover=19.4816
							126:leaf=-0.0023664,cover=1.24959
						80:[v79<11.5] yes=127,no=128,missing=127,gain=3.95215,cover=32.4883
							127:leaf=0.00411658,cover=29.7392
							128:leaf=-0.00687893,cover=2.74917
				26:[v67<7.92143] yes=47,no=48,missing=47,gain=16.1245,cover=74.229
					47:[v22<3732] yes=81,no=82,missing=81,gain=4.62365,cover=9.74626
						81:[v27<1.86901] yes=129,no=130,missing=129,gain=1.40909,cover=7.49702
							129:leaf=0.00208014,cover=1.24951
							130:leaf=0.0155569,cover=6.24751
						82:leaf=-0.00164183,cover=2.24923
					48:[v27<2.24019] yes=83,no=84,missing=83,gain=11.2356,cover=64.4827
						83:[v67<10.529] yes=131,no=132,missing=131,gain=15.1413,cover=18.7445
							131:leaf=0.00889756,cover=13.7452
							132:leaf=-0.0100223,cover=4.99931
						84:[v125<15.5] yes=133,no=134,missing=133,gain=9.30334,cover=45.7383
							133:leaf=0.00550069,cover=5.99834
							134:leaf=-0.0071722,cover=39.7399
			14:[v12<7.53532] yes=27,no=28,missing=27,gain=4.89871,cover=61.4427
				27:[v22<200.5] yes=49,no=50,missing=49,gain=1.58199,cover=37.709
					49:leaf=0.00191387,cover=1.24892
					50:[v68<19.3733] yes=85,no=86,missing=85,gain=1.68706,cover=36.4601
						85:[v6<3.04033] yes=135,no=136,missing=135,gain=1.83692,cover=35.2111
							135:leaf=0.0159581,cover=33.9623
							136:leaf=0.0018888,cover=1.24883
						86:leaf=0.00192812,cover=1.24898
				28:[v125<61.5] yes=51,no=52,missing=51,gain=9.02884,cover=23.7337
					51:[v43<2.4314] yes=87,no=88,missing=87,gain=4.87009,cover=13.7409
						87:[v121<1.33282] yes=137,no=138,missing=137,gain=4.58755,cover=12.4912
							137:leaf=-0.000427826,cover=7.49465
							138:leaf=0.0112529,cover=4.9965
						88:leaf=-0.0112642,cover=1.24971
					52:[v111<3.58822] yes=89,no=90,missing=89,gain=1.77642,cover=9.99281
						89:leaf=0.016478,cover=8.74356
						90:leaf=0.00197887,cover=1.24925
booster[6]
0:[v110<1.5] yes=1,no=2,missing=1,gain=72.6203,cover=988.845
	1:[v114<16.5364] yes=3,no=4,missing=3,gain=31.8292,cover=488.114
		3:[v12<6.44881] yes=7,no=8,missing=7,gain=31.7761,cover=410.223
			7:[v9<9.58464] yes=15,no=16,missing=15,gain=8.9403,cover=167.846
				15:[v114<10.8365] yes=31,no=32,missing=31,gain=7.26351,cover=132.877
					31:[v20<18.6949] yes=51,no=52,missing=51,gain=4.43105,cover=20.7345
						51:[v29<7.30679] yes=85,no=86,missing=85,gain=4.53424,cover=19.235
							85:leaf=0.00312434,cover=14.739
							86:leaf=0.0141005,cover=4.49595
						52:leaf=-0.00821164,cover=1.49947
					32:[v27<3.90799] yes=53,no=54,missing=53,gain=6.08836,cover=112.143
						53:[v56<78.5] yes=87,no=88,missing=87,gain=7.93867,cover=108.146
							87:leaf=0.0128853,cover=99.9008
							88:leaf=0.0023544,cover=8.24506
						54:[v70<11.4052] yes=89,no=90,missing=89,gain=4.14997,cover=3.99713
							89:leaf=0.00734967,cover=2.24821
							90:leaf=-0.00934774,cover=1.74892
				16:[v43<2.21479] yes=33,no=34,missing=33,gain=10.6442,cover=34.969
					33:[v131<0.3165] yes=55,no=56,missing=55,gain=8.40294,cover=24.7276
						55:leaf=-0.00927639,cover=1.74915
						56:[v20<18.7516] yes=91,no=92,missing=91,gain=4.55685,cover=22.9784
							91:leaf=0.0114576,cover=20.2302
							92:leaf=-0.00167511,cover=2.74818
					34:[v9<10.2163] yes=57,no=58,missing=57,gain=4.15133,cover=10.2414
						57:[v112<11.5] yes=93,no=94,missing=93,gain=1.27479,cover=3.99731
							93:leaf=-0.00210801,cover=1.74875
							94:leaf=-0.0141892,cover=2.24856
						58:[v44<9.60909] yes=95,no=96,missing=95,gain=4.77612,cover=6.2441
							95:leaf=-0.00935652,cover=1.74855
							96:leaf=0.0068284,cover=4.49555
			8:[v114<9.23454] yes=17,no=18,missing=17,gain=14.6486,cover=242.377
				17:[v84<1.30042] yes=35,no=36,missing=35,gain=12.1523,cover=21.9934
					35:[v12<6.68758] yes=59,no=60,missing=59,gain=5.51769,cover=12.7467
						59:[v114<7.24555] yes=97,no=98,missing=97,gain=4.11635,cover=7.2483
							97:leaf=-0.00331315,cover=1.99976
							98:leaf=0.0118404,cover=5.24853
						60:[v21<6.6227] yes=99,no=100,missing=99,gain=6.99813,cover=5.49837
							99:leaf=0.00886014,cover=1.7493
							100:leaf=-0.0114505,cover=3.74907
					36:[v61<10.2927] yes=61,no=62,missing=61,gain=3.54444,cover=9.24675
						61:leaf=0.00221022,cover=1.24966
						62:[v114<7.34356] yes=101,no=102,missing=101,gain=1.44918,cover=7.99708
							101:leaf=-0.00455449,cover=2.24927
							102:leaf=-0.0167611,cover=5.74781
				18:[v12<7.15275] yes=37,no=38,missing=37,gain=11.0964,cover=220.383
					37:[v45<12.1668] yes=63,no=64,missing=63,gain=9.78788,cover=182.664
						63:[v26<2.20722] yes=103,no=104,missing=103,gain=9.80591,cover=174.92
							103:leaf=0.00202717,cover=152.432
							104:leaf=0.0089964,cover=22.4878
						64:[v68<17.483] yes=105,no=106,missing=105,gain=1.48009,cover=7.74466
							105:leaf=0.00197798,cover=1.24918
							106:leaf=0.0155951,cover=6.49548
					38:[v11<15.0585] yes=65,no=66,missing=65,gain=6.87884,cover=37.7188
						65:[v84<2.20991] yes=107,no=108,missing=107,gain=3.46965,cover=21.4847
							107:leaf=0.00671719,cover=19.2356
							108:leaf=-0.00484589,cover=2.2491
						66:[v112<2.5] yes=109,no=110,missing=109,gain=4.58077,cover=16.2342
							109:leaf=-0.00244335,cover=1.2493
							110:leaf=0.0157155,cover=14.9849
		4:[v99<1.62171] yes=9,no=10,missing=9,gain=4.43969,cover=77.8914
			9:[v46<2.79417] yes=19,no=20,missing=19,gain=3.21949,cover=73.6447
				19:[v21<6.05611] yes=39,no=40,missing=39,gain=0.569679,cover=71.396
					39:[v114<18.769] yes=67,no=68,missing=67,gain=2.12273,cover=25.9563
						67:leaf=0.0169205,cover=24.708
						68:leaf=0.00187122,cover=1.24827
					40:[v21<6.24455] yes=69,no=70,missing=69,gain=1.42065,cover=45.4397
						69:[v114<17.8007] yes=111,no=112,missing=111,gain=1.52182,cover=3.74497
							111:leaf=-0.000468418,cover=2.49681
							112:leaf=0.0106975,cover=1.24816
						70:[v12<6.79617] yes=113,no=114,missing=113,gain=1.01287,cover=41.6947
							113:leaf=0.013934,cover=34.2037
							114:leaf=0.00768801,cover=7.49107
				20:leaf=0.00128644,cover=2.24865
			10:[v91<4.5] yes=21,no=22,missing=21,gain=2.88406,cover=4.24677
				21:[v58<0.930419] yes=41,no=42,missing=41,gain=0.377932,cover=2.49769
					41:leaf=0.0108243,cover=1.24904
					42:leaf=0.00188952,cover=1.24865
				22:leaf=-0.00563692,cover=1.74908
	2:[v31<2.5] yes=5,no=6,missing=5,gain=19.1543,cover=500.73
		5:[v12<6.50504] yes=11,no=12,missing=11,gain=20.4897,cover=314.103
			11:[v44<15.092] yes=23,no=24,missing=23,gain=1.7087,cover=143.045
				23:[v56<31] yes=43,no=44,missing=43,gain=1.58339,cover=141.047
					43:[v68<19.373] yes=71,no=72,missing=71,gain=4.32345,cover=78.8777
						71:[v12<6.46221] yes=115,no=116,missing=115,gain=0.354776,cover=76.6299
							115:leaf=0.0162549,cover=68.8907
							116:leaf=0.0102348,cover=7.73922
						72:leaf=0.00116739,cover=2.24786
					44:[v122<9.97972] yes=73,no=74,missing=73,gain=3.41712,cover=62.1694
						73:[v92<1.06037] yes=117,no=118,missing=117,gain=2.52608,cover=60.9203
							117:leaf=0.0128695,cover=59.4208
							118:leaf=-0.000162593,cover=1.4995
						74:leaf=-0.00245325,cover=1.24913
				24:leaf=0.00294925,cover=1.99814
			12:[v9<10.2866] yes=25,no=26,missing=25,gain=16.9095,cover=171.058
				25:[v72<1.5] yes=45,no=46,missing=46,gain=5.94677,cover=145.33
					45:[v11<15.087] yes=75,no=76,missing=75,gain=4.9528,cover=81.4187
						75:[v96<6.40425] yes=119,no=120,missing=119,gain=6.50071,cover=47.9538
							119:leaf=0.00689366,cover=43.707
							120:leaf=-0.00516129,cover=4.24677
						76:[v87<13.107] yes=121,no=122,missing=121,gain=5.38972,cover=33.4649
							121:leaf=0.0126285,cover=28.4703
							122:leaf=0.00114826,cover=4.9946
					46:[v69<11.6515] yes=77,no=78,missing=77,gain=6.17824,cover=63.9115
						77:[v129<1.5] yes=123,no=124,missing=124,gain=2.89722,cover=60.4148
							123:leaf=0.00719736,cover=10.4861
							124:leaf=0.0141959,cover=49.9287
						78:[v26<2.30382] yes=125,no=126,missing=125,gain=4.6411,cover=3.49673
							125:leaf=-0.00799525,cover=2.24855
							126:leaf=0.0106975,cover=1.24818
				26:[v122<8.94727] yes=47,no=48,missing=47,gain=7.01821,cover=25.7279
					47:[v45<9.04985] yes=79,no=80,missing=79,gain=6.5586,cover=14.2387
						79:[v46<1.26296] yes=127,no=128,missing=127,gain=5.23143,cover=6.99399
							127:leaf=0.0106163,cover=3.49596
							128:leaf=-0.00477607,cover=3.49803
						80:[v122<7.63483] yes=129,no=130,missing=129,gain=5.02101,cover=7.24469
							129:leaf=0.00296039,cover=1.99815
							130:leaf=-0.0140066,cover=5.24654
					48:[v131<2.35927] yes=81,no=82,missing=81,gain=7.13899,cover=11.4892
						81:[v26<1.46819] yes=131,no=132,missing=131,gain=3.36722,cover=8.49125
							131:leaf=-0.00032711,cover=1.99835
							132:leaf=0.0141222,cover=6.49289
						82:[v121<2.0448] yes=133,no=134,missing=133,gain=2.908,cover=2.998
							133:leaf=0.00365119,cover=1.49852
							134:leaf=-0.0121914,cover=1.49948
		6:[v122<10.7064] yes=13,no=14,missing=13,gain=2.2819,cover=186.627
			13:[v90<1.34633] yes=27,no=28,missing=27,gain=1.74659,cover=183.63
				27:[v114<17.0837] yes=49,no=50,missing=49,gain=1.13744,cover=182.381
					49:[v117<15.9063] yes=83,no=84,missing=83,gain=0.69155,cover=180.882
						83:[v121<2.80072] yes=135,no=136,missing=135,gain=0.746193,cover=179.135
							135:leaf=0.0162469,cover=147.444
							136:leaf=0.0127905,cover=31.6907
						84:leaf=0.00496805,cover=1.74731
					50:leaf=0.00364247,cover=1.49857
				28:leaf=0.00192404,cover=1.24875
			14:[v129<1.5] yes=29,no=30,missing=30,gain=4.3335,cover=2.99705
				29:leaf=-0.00680512,cover=1.24938
				30:leaf=0.0122765,cover=1.74768
booster[7]
0:[v50<0.842932] yes=1,no=2,missing=1,gain=136.788,cover=994.404
	1:[v47<4.5] yes=3,no=4,missing=3,gain=51.5731,cover=333.691
		3:[v95<0.826452] yes=7,no=8,missing=7,gain=9.21088,cover=151.779
			7:[v62<1.5] yes=15,no=16,missing=16,gain=6.45871,cover=132.801
				15:[v50<0.308855] yes=29,no=30,missing=29,gain=8.47882,cover=83.8894
					29:[v22<975] yes=55,no=56,missing=55,gain=4.71253,cover=17.7338
						55:[v104<2.39526] yes=97,no=98,missing=97,gain=0.658549,cover=4.24455
							97:leaf=0.0119997,cover=2.9964
							98:leaf=0.00183441,cover=1.24814
						56:[v64<5.74652] yes=99,no=100,missing=99,gain=8.00187,cover=13.4892
							99:leaf=-0.00642987,cover=8.99376
							100:leaf=0.00860471,cover=4.49547
					30:[v58<0.982927] yes=57,no=58,missing=57,gain=5.80404,cover=66.1556
						57:[v86<1.0191] yes=101,no=102,missing=101,gain=16.4616,cover=36.4516
							101:leaf=0.00886185,cover=33.4534
							102:leaf=-0.0128638,cover=2.99815
						58:[v40<7.50127] yes=103,no=104,missing=103,gain=5.05774,cover=29.704
							103:leaf=-0.000385307,cover=2.49785
							104:leaf=0.0143099,cover=27.2062
				16:[v98<9.85966] yes=31,no=32,missing=31,gain=4.07423,cover=48.9117
					31:[v82<12.3497] yes=59,no=60,missing=59,gain=1.42568,cover=44.4173
						59:[v22<1293] yes=105,no=106,missing=105,gain=0.695711,cover=43.1696
							105:leaf=0.0101312,cover=12.2245
							106:leaf=0.0154797,cover=30.9451
						60:leaf=0.00176425,cover=1.24769
					32:[v49<6.65784] yes=61,no=62,missing=61,gain=3.72805,cover=4.49437
						61:leaf=0.01029,cover=2.24687
						62:leaf=-0.00502837,cover=2.2475
			8:[v77<8.62314] yes=17,no=18,missing=17,gain=7.95194,cover=18.9779
				17:[v131<1.71921] yes=33,no=34,missing=33,gain=4.70096,cover=10.9882
					33:[v62<1.5] yes=63,no=64,missing=64,gain=5.49961,cover=8.23978
						63:[v27<2.16789] yes=107,no=108,missing=107,gain=6.08161,cover=4.49628
							107:leaf=-0.0127852,cover=2.99838
							108:leaf=0.00757313,cover=1.4979
						64:[v44<9.81985] yes=109,no=110,missing=109,gain=2.03942,cover=3.7435
							109:leaf=0.0133086,cover=2.24633
							110:leaf=-0.000487609,cover=1.49717
					34:leaf=-0.0123387,cover=2.74842
				18:[v56<44] yes=35,no=36,missing=35,gain=6.88249,cover=7.98966
					35:[v22<1383] yes=65,no=66,missing=65,gain=1.57072,cover=6.24102
						65:leaf=0.00193339,cover=1.24856
						66:leaf=0.0160727,cover=4.99246
					36:leaf=-0.0057381,cover=1.74864
		4:[v40<6.11823] yes=9,no=10,missing=9,gain=19.4303,cover=181.912
			9:[v125<41.5] yes=19,no=20,missing=19,gain=6.43027,cover=26.7147
				19:[v25<0.808837] yes=37,no=38,missing=37,gain=4.79571,cover=11.7367
					37:[v22<881.5] yes=67,no=68,missing=67,gain=4.03776,cover=9.98719
						67:leaf=-0.0057524,cover=1.74873
						68:[v40<5.30244] yes=111,no=112,missing=111,gain=1.49967,cover=8.23847
							111:leaf=0.0103381,cover=6.74029
							112:leaf=-0.000359952,cover=1.49818
					38:leaf=-0.00913297,cover=1.74948
				20:[v40<2.53455] yes=39,no=40,missing=39,gain=5.26906,cover=14.978
					39:leaf=-0.00217615,cover=1.74847
					40:[v50<0.307388] yes=69,no=70,missing=69,gain=0.264585,cover=13.2296
						69:[v22<2288.5] yes=113,no=114,missing=113,gain=1.62585,cover=3.24596
							113:leaf=0.0123052,cover=1.7479
							114:leaf=-0.000392723,cover=1.49807
						70:leaf=0.0165783,cover=9.98361
			10:[v50<0.402758] yes=21,no=22,missing=21,gain=21.7877,cover=155.197
				21:[v82<3.68449] yes=41,no=42,missing=41,gain=6.29911,cover=56.4904
					41:[v50<0.291982] yes=71,no=72,missing=71,gain=7.20968,cover=43.7432
						71:[v50<0.192208] yes=115,no=116,missing=115,gain=4.03908,cover=25.7461
							115:leaf=-0.00755076,cover=10.998
							116:leaf=0.000246707,cover=14.7481
						72:[v1<2.29919] yes=117,no=118,missing=117,gain=3.1452,cover=17.9971
							117:leaf=-0.0126453,cover=16.7472
							118:leaf=0.00222039,cover=1.24989
					42:[v59<8.94561] yes=73,no=74,missing=73,gain=9.32502,cover=12.7472
						73:leaf=0.0146054,cover=2.74986
						74:[v22<2821] yes=119,no=120,missing=119,gain=6.83893,cover=9.99737
							119:leaf=-0.0087468,cover=6.99829
							120:leaf=0.00741297,cover=2.99907
				22:[v40<15.0792] yes=43,no=44,missing=43,gain=15.0817,cover=98.7065
					43:[v13<4.90102] yes=75,no=76,missing=75,gain=9.52225,cover=88.9609
						75:[v90<1.00102] yes=121,no=122,missing=121,gain=6.61526,cover=83.462
							121:leaf=0.0031476,cover=63.2239
							122:leaf=0.00969695,cover=20.2381
						76:[v22<1203] yes=123,no=124,missing=123,gain=5.13396,cover=5.49887
							123:leaf=0.00648963,cover=1.24963
							124:leaf=-0.0124782,cover=4.24923
					44:[v36<15.3899] yes=77,no=78,missing=77,gain=3.78116,cover=9.74563
						77:[v113<20.5] yes=125,no=126,missing=125,gain=2.18947,cover=8.24615
							125:leaf=-0.0132055,cover=6.74621
							126:leaf=-3.38825e-06,cover=1.49994
						78:leaf=0.00398596,cover=1.49948
	2:[v50<1.85826] yes=5,no=6,missing=5,gain=44.5122,cover=660.713
		5:[v47<6.5] yes=11,no=12,missing=11,gain=13.5898,cover=361.961
			11:[v115<17.5714] yes=23,no=24,missing=23,gain=8.75321,cover=218.348
				23:[v49<9.06712] yes=45,no=46,missing=45,gain=4.23942,cover=216.849
					45:[v83<5.57156] yes=79,no=80,missing=79,gain=4.32017,cover=203.866
						79:[v49<8.27651] yes=127,no=128,missing=127,gain=3.06216,cover=202.118
							127:leaf=0.0117959,cover=167.935
							128:leaf=0.0157826,cover=34.1829
						80:leaf=-0.00214686,cover=1.7482
					46:[v104<2.94798] yes=81,no=82,missing=81,gain=4.86298,cover=12.9829
						81:[v111<3.21599] yes=129,no=130,missing=129,gain=4.07578,cover=9.73602
							129:leaf=0.000558144,cover=3.7454
							130:leaf=0.0136411,cover=5.99062
						82:[v131<0.743243] yes=131,no=132,missing=131,gain=3.43936,cover=3.24691
							131:leaf=0.00634712,cover=1.24833
							132:leaf=-0.0103063,cover=1.99858
				24:leaf=-0.00823015,cover=1.49921
			12:[v40<7.92092] yes=25,no=26,missing=25,gain=12.0749,cover=143.613
				25:[v113<28.5] yes=47,no=48,missing=47,gain=3.28595,cover=28.7011
					47:[v50<1.79371] yes=83,no=84,missing=83,gain=1.78736,cover=23.4574
						83:[v10<2.36324] yes=133,no=134,missing=133,gain=1.32181,cover=22.2091
							133:leaf=0.0164664,cover=20.7114
							134:leaf=0.0035931,cover=1.49771
						84:leaf=0.00183261,cover=1.24827
					48:[v40<3.12568] yes=85,no=86,missing=85,gain=3.07251,cover=5.24368
						85:leaf=-0.00365712,cover=1.99817
						86:[v50<1.49219] yes=135,no=136,missing=135,gain=0.734381,cover=3.24551
							135:leaf=0.0128283,cover=1.99695
							136:leaf=0.00184688,cover=1.24856
				26:[v1<3.56722] yes=49,no=50,missing=49,gain=7.71989,cover=114.912
					49:[v40<8.04464] yes=87,no=88,missing=87,gain=3.93718,cover=110.914
						87:leaf=-0.00581183,cover=1.74856
						88:[v49<8.30395] yes=137,no=138,missing=137,gain=3.95199,cover=109.166
							137:leaf=0.00793297,cover=87.1825
							138:leaf=0.00300122,cover=21.9831
					50:[v44<9.57057] yes=89,no=90,missing=89,gain=4.51288,cover=3.99781
						89:leaf=-0.0122011,cover=2.74888
						90:leaf=0.00635966,cover=1.24893
		6:[v1<4.89942] yes=13,no=14,missing=13,gain=5.2348,cover=298.752
			13:[v32<1.56852] yes=27,no=28,missing=27,gain=3.21227,cover=296.754
				27:[v113<33.5] yes=51,no=52,missing=51,gain=2.15562,cover=218.431
					51:[v77<8.31792] yes=91,no=92,missing=91,gain=0.96117,cover=217.184
						91:leaf=0.0167949,cover=203.715
						92:[v47<5.5] yes=139,no=140,missing=139,gain=3.92829,cover=13.4689
							139:leaf=0.0151231,cover=8.97583
							140:leaf=0.00302855,cover=4.49304
					52:leaf=0.00176234,cover=1.2478
				28:[v95<0.481401] yes=53,no=54,missing=53,gain=6.9009,cover=78.3223
					53:[v88<1.21756] yes=93,no=94,missing=93,gain=8.32203,cover=8.23116
						93:leaf=-0.0104763,cover=1.99704
						94:[v115<9.23859] yes=141,no=142,missing=141,gain=5.14477,cover=6.23411
							141:leaf=-0.00451425,cover=1.49689
							142:leaf=0.0139643,cover=4.73722
					54:[v32<1.58148] yes=95,no=96,missing=95,gain=5.64014,cover=70.0911
						95:leaf=-0.00223572,cover=1.74784
						96:[v44<6.50774] yes=143,no=144,missing=143,gain=4.66424,cover=68.3433
							143:leaf=-0.00255004,cover=1.24851
							144:leaf=0.0151556,cover=67.0948
			14:leaf=-0.000379151,cover=1.9981
booster[8]
0:[v50<1.01753] yes=1,no=2,missing=1,gain=132.78,cover=989.444
	1:[v110<1.5] yes=3,no=4,missing=3,gain=48.3953,cover=409.744
		3:[v66<2.5] yes=7,no=8,missing=7,gain=46.4021,cover=221.848
			7:[v50<0.369012] yes=15,no=16,missing=15,gain=23.6559,cover=165.924
				15:[v53<15.7834] yes=29,no=30,missing=29,gain=9.40204,cover=41.4922
					29:[v28<5.5666] yes=57,no=58,missing=57,gain=12.0126,cover=31.9953
						57:[v10<0.7221] yes=99,no=100,missing=99,gain=3.08065,cover=23.2469
							99:leaf=0.00110115,cover=3.24935
							100:leaf=-0.0090501,cover=19.9975
						58:[v67<10.6979] yes=101,no=102,missing=101,gain=5.21603,cover=8.74846
							101:leaf=0.00900092,cover=7.24895
							102:leaf=-0.00792992,cover=1.49951
					30:[v100<18.9462] yes=59,no=60,missing=59,gain=2.28994,cover=9.49685
						59:leaf=-0.0174422,cover=7.49763
						60:leaf=-0.00340251,cover=1.99921
				16:[v114<9.17529] yes=31,no=32,missing=31,gain=12.8141,cover=124.432
					31:[v10<0.7221] yes=61,no=62,missing=61,gain=3.84825,cover=15.992
						61:leaf=0.00547338,cover=1.74925
						62:[v114<8.6626] yes=103,no=104,missing=103,gain=2.14632,cover=14.2428
							103:leaf=-0.00514749,cover=11.2452
							104:leaf=-0.0146916,cover=2.99752
					32:[v27<2.00418] yes=63,no=64,missing=63,gain=10.2131,cover=108.44
						63:[v86<0.941046] yes=105,no=106,missing=105,gain=8.94804,cover=51.4757
							105:leaf=0.00160849,cover=43.9783
							106:leaf=-0.00958085,cover=7.49742
						64:[v122<6.69546] yes=107,no=108,missing=107,gain=11.0977,cover=56.9639
							107:leaf=0.0104018,cover=27.4795
							108:leaf=0.00158526,cover=29.4843
			8:[v120<1.11474] yes=17,no=18,missing=17,gain=6.17261,cover=55.9244
				17:[v56<77.5] yes=33,no=34,missing=33,gain=3.95053,cover=46.4341
					33:[v50<0.344803] yes=65,no=66,missing=65,gain=2.96877,cover=42.4381
						65:[v114<16.7361] yes=109,no=110,missing=109,gain=1.76431,cover=11.9876
							109:leaf=0.00270839,cover=5.99863
							110:leaf=0.0107301,cover=5.98894
						66:[v10<0.328227] yes=111,no=112,missing=111,gain=2.63419,cover=30.4506
							111:leaf=0.0014107,cover=1.74769
							112:leaf=0.0149257,cover=28.7029
					34:[v114<17.614] yes=67,no=68,missing=67,gain=0.829477,cover=3.99594
						67:[v50<0.288314] yes=113,no=114,missing=113,gain=0.460454,cover=2.74817
							113:leaf=0.00211227,cover=1.24952
							114:leaf=-0.00425466,cover=1.49865
						68:leaf=0.00621523,cover=1.24777
				18:[v43<2.23752] yes=35,no=36,missing=35,gain=8.00972,cover=9.49031
					35:[v27<2.90216] yes=69,no=70,missing=69,gain=3.13915,cover=5.24317
						69:leaf=0.0147741,cover=3.24493
						70:leaf=-0.000285943,cover=1.99824
					36:[v87<9.21228] yes=71,no=72,missing=71,gain=4.71079,cover=4.24714
						71:leaf=0.00626131,cover=1.24797
						72:leaf=-0.012586,cover=2.99917
		4:[v50<0.181938] yes=9,no=10,missing=9,gain=9.81664,cover=187.895
			9:[v14<11.4416] yes=19,no=20,missing=19,gain=14.0541,cover=10.7402
				19:[v66<1.5] yes=37,no=38,missing=37,gain=0.786076,cover=5.9928
					37:leaf=0.0124369,cover=3.24586
					38:[v10<0.634573] yes=73,no=74,missing=73,gain=1.10194,cover=2.74694
						73:leaf=-0.00249344,cover=1.24916
						74:leaf=0.0075842,cover=1.49778
				20:[v28<5.40731] yes=39,no=40,missing=39,gain=0.728366,cover=4.7474
					39:leaf=-0.0136592,cover=3.49805
					40:leaf=-0.00244962,cover=1.24935
			10:[v122<8.33534] yes=21,no=22,missing=21,gain=6.52514,cover=177.155
				21:[v92<1.05485] yes=41,no=42,missing=41,gain=7.74809,cover=154.689
					41:[v50<0.999927] yes=75,no=76,missing=75,gain=5.07169,cover=151.442
						75:[v14<9.72259] yes=115,no=116,missing=115,gain=4.27691,cover=148.697
							115:leaf=0.00402633,cover=9.48284
							116:leaf=0.011534,cover=139.215
						76:[v82<3.17869] yes=117,no=118,missing=117,gain=2.50865,cover=2.7442
							117:leaf=-0.00850535,cover=1.49725
							118:leaf=0.00614822,cover=1.24695
					42:[v78<14.8203] yes=77,no=78,missing=77,gain=3.36239,cover=3.24766
						77:leaf=-0.0101197,cover=1.99928
						78:leaf=0.00633372,cover=1.24838
				22:[v94<3.64866] yes=43,no=44,missing=43,gain=7.32677,cover=22.466
					43:[v17<3.23657] yes=79,no=80,missing=79,gain=6.45538,cover=17.4711
						79:[v99<1.16336] yes=119,no=120,missing=119,gain=9.71454,cover=6.49158
							119:leaf=-0.0140499,cover=2.24897
							120:leaf=0.0079597,cover=4.24262
						80:[v6<3.16797] yes=121,no=122,missing=121,gain=3.66325,cover=10.9795
							121:leaf=0.0142565,cover=8.982
							122:leaf=-0.000388864,cover=1.99748
					44:[v9<11.64] yes=81,no=82,missing=81,gain=5.57386,cover=4.99495
						81:[v53<15.0698] yes=123,no=124,missing=123,gain=0.72835,cover=3.49736
							123:leaf=-0.00250192,cover=1.2487
							124:leaf=-0.0141619,cover=2.24865
						82:leaf=0.00757193,cover=1.49759
	2:[v50<1.82305] yes=5,no=6,missing=5,gain=30.8774,cover=579.7
		5:[v110<1.5] yes=11,no=12,missing=11,gain=11.6319,cover=275.452
			11:[v66<2.5] yes=23,no=24,missing=23,gain=15.6021,cover=138.304
				23:[v120<1.74798] yes=45,no=46,missing=45,gain=5.12207,cover=102.879
					45:[v100<18.0754] yes=83,no=84,missing=83,gain=7.52055,cover=89.1436
						83:[v27<4.11603] yes=125,no=126,missing=125,gain=6.24479,cover=74.6637
							125:leaf=0.00607348,cover=73.4139
							126:leaf=-0.0112568,cover=1.24974
						84:[v114<15.5393] yes=127,no=128,missing=127,gain=4.36336,cover=14.4799
							127:leaf=0.0151289,cover=13.2312
							128:leaf=-0.0025718,cover=1.24869
					46:[v120<2.38294] yes=85,no=86,missing=85,gain=5.00063,cover=13.7359
						85:[v4<4.58115] yes=129,no=130,missing=129,gain=4.73575,cover=8.2424
							129:leaf=-0.00998994,cover=4.74626
							130:leaf=0.00395013,cover=3.49615
						86:[v99<0.660524] yes=131,no=132,missing=131,gain=5.02384,cover=5.49347
							131:leaf=-0.006836,cover=1.24939
							132:leaf=0.0118024,cover=4.24408
				24:[v10<0.328228] yes=47,no=48,missing=47,gain=4.31529,cover=35.4243
					47:leaf=-0.00252793,cover=1.24841
					48:[v14<10.3281] yes=87,no=88,missing=87,gain=2.54367,cover=34.1759
						87:[v56<32] yes=133,no=134,missing=133,gain=1.55552,cover=3.99115
							133:leaf=-0.00265068,cover=1.24807
							134:leaf=0.00863119,cover=2.74308
						88:[v59<11.8012] yes=135,no=136,missing=135,gain=2.42573,cover=30.1847
							135:leaf=0.0166612,cover=26.9407
							136:leaf=0.00525122,cover=3.24403
			12:[v60<2.6445] yes=25,no=26,missing=25,gain=4.96839,cover=137.148
				25:[v3<1.5] yes=49,no=50,missing=49,gain=5.10866,cover=132.405
					49:[v77<8.05939] yes=89,no=90,missing=89,gain=4.69611,cover=6.73542
						89:[v6<1.85467] yes=137,no=138,missing=137,gain=1.74753,cover=5.23767
							137:leaf=0.00182024,cover=2.99372
							138:leaf=0.0131559,cover=2.24396
						90:leaf=-0.00843124,cover=1.49775
					50:[v10<0.601751] yes=91,no=92,missing=91,gain=3.21322,cover=125.67
						91:leaf=0.00102675,cover=2.24629
						92:[v50<1.80691] yes=139,no=140,missing=139,gain=1.73288,cover=123.424
							139:leaf=0.0137354,cover=121.428
							140:leaf=0.00269716,cover=1.99528
				26:[v67<10.0429] yes=51,no=52,missing=51,gain=3.96187,cover=4.74254
					51:leaf=-0.0083172,cover=1.49865
					52:[v67<10.7471] yes=93,no=94,missing=93,gain=2.54811,cover=3.24389
						93:leaf=0.0127426,cover=1.99565
						94:leaf=-0.00258782,cover=1.24824
		6:[v51<13.4582] yes=13,no=14,missing=13,gain=2.96867,cover=304.249
			13:[v122<6.71835] yes=27,no=28,missing=27,gain=2.35723,cover=302.502
				27:[v28<11.9403] yes=53,no=54,missing=53,gain=2.06762,cover=216.762
					53:[v50<2.59335] yes=95,no=96,missing=95,gain=1.58437,cover=215.516
						95:[v50<2.58675] yes=141,no=142,missing=141,gain=4.7725,cover=116.139
							141:leaf=0.0149144,cover=114.893
							142:leaf=-0.00280003,cover=1.24657
						96:[v86<1.55044] yes=143,no=144,missing=143,gain=0.855698,cover=99.3765
							143:leaf=0.0176417,cover=97.3806
							144:leaf=0.00609159,cover=1.99588
					54:leaf=0.00165677,cover=1.24671
				28:[v6<1.23782] yes=55,no=56,missing=55,gain=7.60733,cover=85.7395
					55:leaf=-0.00703462,cover=1.24823
					56:[v77<9.95785] yes=97,no=98,missing=97,gain=1.65341,cover=84.4912
						97:[v86<1.18914] yes=145,no=146,missing=145,gain=2.07276,cover=82.4943
							145:leaf=0.0103702,cover=24.4246
							146:leaf=0.0150929,cover=58.0697
						98:leaf=0.00286016,cover=1.99694
			14:leaf=0.00134258,cover=1.7467
booster[9]
0:[v110<1.5] yes=1,no=2,missing=1,gain=64.5308,cover=1000.39
	1:[v66<2.5] yes=3,no=4,missing=3,gain=49.7826,cover=483.652
		3:[v12<6.43634] yes=7,no=8,missing=7,gain=27.4076,cover=357.498
			7:[v51<11.4641] yes=15,no=16,missing=15,gain=9.80629,cover=140.463
				15:[v12<6.22377] yes=29,no=30,missing=29,gain=5.93954,cover=134.468
					29:[v14<9.24793] yes=51,no=52,missing=51,gain=5.54733,cover=65.0861
						51:[v124<0.178253] yes=89,no=90,missing=89,gain=2.51538,cover=2.74775
							89:leaf=-0.00823659,cover=1.49902
							90:leaf=0.00640335,cover=1.24873
						52:[v35<10.5247] yes=91,no=92,missing=91,gain=3.56731,cover=62.3384
							91:leaf=0.0128175,cover=59.5923
							92:leaf=0.000842015,cover=2.74608
					30:[v24<1.5] yes=53,no=54,missing=53,gain=5.72672,cover=69.3815
						53:leaf=-0.00699386,cover=1.99832
						54:[v14<11.2294] yes=93,no=94,missing=93,gain=5.05592,cover=67.3832
							93:leaf=0.00364506,cover=22.4651
							94:leaf=0.00967557,cover=44.9181
				16:[v7<1.77664] yes=31,no=32,missing=31,gain=4.36686,cover=5.99572
					31:[v66<1.5] yes=55,no=56,missing=55,gain=1.83034,cover=2.99706
						55:leaf=0.0107719,cover=1.24856
						56:leaf=-0.00196852,cover=1.7485
					32:[v28<4.62155] yes=57,no=58,missing=57,gain=0.54101,cover=2.99866
						57:leaf=-0.00237408,cover=1.24933
						58:leaf=-0.0129228,cover=1.74933
			8:[v14<11.986] yes=17,no=18,missing=17,gain=18.6852,cover=217.034
				17:[v21<6.09077] yes=33,no=34,missing=33,gain=11.8293,cover=119.152
					33:[v78<14.5843] yes=59,no=60,missing=59,gain=7.82826,cover=30.459
						59:[v28<4.00791] yes=95,no=96,missing=95,gain=9.57207,cover=26.9609
							95:leaf=0.00242369,cover=15.9784
							96:leaf=0.0144371,cover=10.9826
						60:[v2<7.57349] yes=97,no=98,missing=97,gain=5.0885,cover=3.49809
							97:leaf=-0.0139039,cover=2.24952
							98:leaf=0.0063886,cover=1.24857
					34:[v86<1.25797] yes=61,no=62,missing=61,gain=7.5436,cover=88.6926
						61:[v70<11.5211] yes=99,no=100,missing=99,gain=9.29251,cover=67.2058
							99:leaf=-0.00168273,cover=51.7188
							100:leaf=0.00691959,cover=15.487
						62:[v131<1.33596] yes=101,no=102,missing=101,gain=8.34894,cover=21.4868
							101:leaf=0.000738478,cover=9.4944
							102:leaf=-0.0115249,cover=11.9924
				18:[v1<1.3775] yes=35,no=36,missing=35,gain=9.16185,cover=97.8828
					35:[v123<3.10334] yes=63,no=64,missing=63,gain=6.41206,cover=65.4285
						63:[v21<7.77885] yes=103,no=104,missing=103,gain=7.17206,cover=55.4365
							103:leaf=0.00764041,cover=40.4477
							104:leaf=-0.000405317,cover=14.9887
						64:[v76<1.23525] yes=105,no=106,missing=105,gain=6.02796,cover=9.99208
							105:leaf=0.0096447,cover=1.99834
							106:leaf=-0.006837,cover=7.99374
					36:[v104<1.91177] yes=65,no=66,missing=65,gain=4.77415,cover=32.4543
						65:[v123<2.28829] yes=107,no=108,missing=107,gain=3.03512,cover=4.24562
							107:leaf=0.00726414,cover=2.24678
							108:leaf=-0.00669761,cover=1.99884
						66:[v115<8.85726] yes=109,no=110,missing=109,gain=5.05107,cover=28.2087
							109:leaf=0.00221598,cover=4.74583
							110:leaf=0.014022,cover=23.4628
		4:[v113<1.5] yes=9,no=10,missing=9,gain=11.6164,cover=126.154
			9:[v12<6.34061] yes=19,no=20,missing=19,gain=3.24031,cover=3.74504
				19:leaf=0.00493205,cover=1.74677
				20:leaf=-0.0103616,cover=1.99827
			10:[v113<27.5] yes=21,no=22,missing=21,gain=7.65031,cover=122.409
				21:[v120<2.54743] yes=37,no=38,missing=37,gain=4.5293,cover=99.4564
					37:[v14<13.0335] yes=67,no=68,missing=67,gain=2.18798,cover=98.2089
						67:[v34<9.79366] yes=111,no=112,missing=111,gain=0.253749,cover=95.2151
							111:leaf=0.0161587,cover=60.3349
							112:leaf=0.0128314,cover=34.8803
						68:[v12<7.096] yes=113,no=114,missing=113,gain=4.24336,cover=2.99372
							113:leaf=0.0120364,cover=1.74423
							114:leaf=-0.0068296,cover=1.24949
					38:leaf=-0.00256079,cover=1.24751
				22:[v120<1.05991] yes=39,no=40,missing=39,gain=7.31619,cover=22.9527
					39:[v14<10.1363] yes=69,no=70,missing=69,gain=4.19953,cover=19.4559
						69:leaf=-0.00213447,cover=2.24512
						70:[v21<6.51764] yes=115,no=116,missing=115,gain=0.0622589,cover=17.2108
							115:leaf=0.0145968,cover=5.48493
							116:leaf=0.00905151,cover=11.7259
					40:[v29<7.1868] yes=71,no=72,missing=71,gain=3.70501,cover=3.4968
						71:leaf=0.00626967,cover=1.2479
						72:leaf=-0.0108302,cover=2.24891
	2:[v31<2.5] yes=5,no=6,missing=5,gain=18.332,cover=516.739
		5:[v12<6.48181] yes=11,no=12,missing=11,gain=13.3091,cover=323.091
			11:[v14<10.072] yes=23,no=24,missing=23,gain=5.03729,cover=140.286
				23:[v120<1.4603] yes=41,no=42,missing=41,gain=4.92348,cover=15.7169
					41:[v115<9.70725] yes=73,no=74,missing=73,gain=8.5671,cover=11.4788
						73:[v21<5.75895] yes=117,no=118,missing=117,gain=4.50541,cover=7.73352
							117:leaf=0.0123297,cover=6.2358
							118:leaf=-0.00444256,cover=1.49772
						74:[v76<2.1848] yes=119,no=120,missing=119,gain=2.8124,cover=3.74528
							119:leaf=0.00146185,cover=1.74767
							120:leaf=-0.0137575,cover=1.99761
					42:leaf=0.0154005,cover=4.23805
				24:[v123<13.4969] yes=43,no=44,missing=43,gain=4.41819,cover=124.569
					43:[v70<16.4059] yes=75,no=76,missing=75,gain=2.51175,cover=122.572
						75:[v52<4.5] yes=121,no=122,missing=121,gain=0.995613,cover=119.829
							121:leaf=0.0122648,cover=42.3577
							122:leaf=0.0155902,cover=77.4716
						76:[v90<1.18037] yes=123,no=124,missing=123,gain=3.85801,cover=2.74306
							123:leaf=-0.00696975,cover=1.24866
							124:leaf=0.0112974,cover=1.4944
					44:leaf=-0.000463499,cover=1.99673
			12:[v9<10.2899] yes=25,no=26,missing=25,gain=9.59844,cover=182.805
				25:[v14<12.157] yes=45,no=46,missing=45,gain=6.67351,cover=155.354
					45:[v12<6.82565] yes=77,no=78,missing=77,gain=9.09635,cover=85.0586
						77:[v93<6.79129] yes=125,no=126,missing=125,gain=8.701,cover=59.1098
							125:leaf=0.0114589,cover=52.6217
							126:leaf=-0.000698502,cover=6.48811
						78:[v12<6.84215] yes=127,no=128,missing=127,gain=7.77213,cover=25.9488
							127:leaf=-0.0132553,cover=1.74697
							128:leaf=0.00455085,cover=24.2018
					46:[v51<11.0759] yes=79,no=80,missing=79,gain=2.74924,cover=70.2949
						79:[v96<7.84332] yes=129,no=130,missing=129,gain=2.47181,cover=68.7988
							129:leaf=0.0132797,cover=63.5618
							130:leaf=0.00482498,cover=5.23698
						80:leaf=-0.000599872,cover=1.4961
				26:[v118<6.73242] yes=47,no=48,missing=47,gain=6.1534,cover=27.4512
					47:[v86<1.33955] yes=81,no=82,missing=81,gain=3.87129,cover=5.99036
						81:[v101<5.42782] yes=131,no=132,missing=131,gain=2.61788,cover=2.74379
							131:leaf=0.0105803,cover=1.24692
							132:leaf=-0.00454299,cover=1.49686
						82:[v28<5.96109] yes=133,no=134,missing=133,gain=0.583286,cover=3.24658
							133:leaf=-0.0136323,cover=1.99841
							134:leaf=-0.00260207,cover=1.24817
					48:[v86<1.67207] yes=83,no=84,missing=83,gain=5.35561,cover=21.4608
						83:[v115<9.81165] yes=135,no=136,missing=135,gain=6.31932,cover=13.976
							135:leaf=-0.00716772,cover=4.24499
							136:leaf=0.00626406,cover=9.73096
						84:[v2<2.7264] yes=137,no=138,missing=137,gain=3.94096,cover=7.48485
							137:leaf=-0.00244112,cover=1.24887
							138:leaf=0.0151004,cover=6.23598
		6:[v115<15.5136] yes=13,no=14,missing=13,gain=6.12613,cover=193.648
			13:[v90<1.40105] yes=27,no=28,missing=27,gain=1.70745,cover=191.903
				27:[v14<16.2993] yes=49,no=50,missing=49,gain=0.67879,cover=190.655
					49:[v28<10.9835] yes=85,no=86,missing=85,gain=0.453333,cover=187.666
						85:[v34<8.9267] yes=139,no=140,missing=139,gain=0.109042,cover=184.431
							139:leaf=0.0157626,cover=168.743
							140:leaf=0.0117116,cover=15.6874
						86:[v1<1.39509] yes=141,no=142,missing=141,gain=2.63427,cover=3.23565
							141:leaf=0.0124879,cover=1.99114
							142:leaf=-0.00295889,cover=1.24451
					50:[v21<10.4582] yes=87,no=88,missing=87,gain=2.33947,cover=2.98872
						87:leaf=-0.00282405,cover=1.24611
						88:leaf=0.0119338,cover=1.74262
				28:leaf=0.00185063,cover=1.24805
			14:leaf=-0.00238812,cover=1.74525
booster[10]
0:[v50<0.842932] yes=1,no=2,missing=1,gain=132.639,cover=996.806
	1:[v110<1.5] yes=3,no=4,missing=3,gain=45.6076,cover=339.149
		3:[v114<16.3589] yes=7,no=8,missing=7,gain=21.0472,cover=183.082
			7:[v50<0.369012] yes=15,no=16,missing=15,gain=15.9008,cover=154.656
				15:[v53<15.7251] yes=27,no=28,missing=27,gain=9.77855,cover=50.9854
					27:[v28<5.5666] yes=47,no=48,missing=47,gain=9.08277,cover=38.7418
						47:[v50<0.283179] yes=85,no=86,missing=85,gain=5.74283,cover=32.2441
							85:leaf=-0.00120057,cover=21.2466
							86:leaf=-0.0099227,cover=10.9975
						48:[v9<8.218] yes=87,no=88,missing=87,gain=5.04572,cover=6.4977
							87:leaf=-0.00660319,cover=1.24962
							88:leaf=0.0117752,cover=5.24808
					28:[v9<6.76014] yes=49,no=50,missing=49,gain=3.51353,cover=12.2436
						49:leaf=0.00218174,cover=1.24924
						50:[v63<0.107737] yes=89,no=90,missing=89,gain=4.30563,cover=10.9944
							89:leaf=0.00212598,cover=1.24944
							90:leaf=-0.0159701,cover=9.74493
				16:[v114<8.97567] yes=29,no=30,missing=29,gain=12.7873,cover=103.671
					29:[v125<39.5] yes=51,no=52,missing=51,gain=5.77782,cover=11.9904
						51:[v125<19] yes=91,no=92,missing=91,gain=2.52558,cover=3.9983
							91:leaf=-0.00530547,cover=1.74919
							92:leaf=0.00781768,cover=2.24911
						52:[v112<13.5] yes=93,no=94,missing=93,gain=2.59035,cover=7.99206
							93:leaf=-0.0142175,cover=6.49295
							94:leaf=0.000109854,cover=1.49911
					30:[v13<4.89833] yes=53,no=54,missing=53,gain=11.1085,cover=91.6806
						53:[v77<8.59126] yes=95,no=96,missing=95,gain=9.15254,cover=86.6829
							95:leaf=0.00489948,cover=82.4349
							96:leaf=-0.00884065,cover=4.24799
						54:[v60<1.86479] yes=97,no=98,missing=97,gain=6.66503,cover=4.99776
							97:leaf=-0.015706,cover=3.74898
							98:leaf=0.0064953,cover=1.24879
			8:[v96<5.86057] yes=17,no=18,missing=17,gain=4.57505,cover=28.4258
				17:[v112<4.5] yes=31,no=32,missing=31,gain=0.542239,cover=21.6856
					31:leaf=0.00386658,cover=2.24276
					32:[v114<18.4509] yes=55,no=56,missing=55,gain=0.99391,cover=19.4428
						55:[v125<27.5] yes=99,no=100,missing=99,gain=1.58841,cover=16.4496
							99:leaf=0.00529113,cover=3.99096
							100:leaf=0.0145527,cover=12.4586
						56:[v112<14] yes=101,no=102,missing=101,gain=1.91836,cover=2.99325
							101:leaf=0.0105692,cover=1.2468
							102:leaf=-0.00236549,cover=1.74644
				18:[v77<7.43611] yes=33,no=34,missing=33,gain=7.65567,cover=6.74018
					33:[v104<2.3274] yes=57,no=58,missing=57,gain=0.41268,cover=2.74777
						57:leaf=-0.0121194,cover=1.49956
						58:leaf=-0.0023676,cover=1.2482
					34:[v8<2.23815] yes=59,no=60,missing=59,gain=3.05437,cover=3.99242
						59:leaf=0.014025,cover=2.74401
						60:leaf=-0.00241215,cover=1.24841
		4:[v50<0.248698] yes=9,no=10,missing=9,gain=10.0238,cover=156.067
			9:[v8<2.98364] yes=19,no=20,missing=19,gain=5.37261,cover=19.4666
				19:[v64<6.02044] yes=35,no=36,missing=35,gain=5.61682,cover=17.9671
					35:[v72<1.5] yes=61,no=62,missing=62,gain=6.0209,cover=12.7289
						61:[v114<13.6711] yes=103,no=104,missing=103,gain=1.36784,cover=7.24234
							103:leaf=-0.00217056,cover=4.99422
							104:leaf=-0.0111124,cover=2.24813
						62:[v50<0.162131] yes=105,no=106,missing=105,gain=3.23801,cover=5.48658
							105:leaf=-0.000531788,cover=2.99561
							106:leaf=0.013471,cover=2.49096
					36:[v53<16.2698] yes=63,no=64,missing=63,gain=0.992213,cover=5.23818
						63:leaf=0.013299,cover=3.99124
						64:leaf=0.00170228,cover=1.24694
				20:leaf=-0.0121593,cover=1.49953
			10:[v68<18.8741] yes=21,no=22,missing=21,gain=9.90597,cover=136.6
				21:[v86<2.03399] yes=37,no=38,missing=37,gain=4.35406,cover=115.157
					37:[v58<0.898465] yes=65,no=66,missing=65,gain=3.11344,cover=110.911
						65:[v93<5.80258] yes=107,no=108,missing=107,gain=6.52208,cover=61.0648
							107:leaf=0.00988744,cover=58.3196
							108:leaf=-0.00455757,cover=2.74518
						66:[v41<5.05536] yes=109,no=110,missing=109,gain=3.86984,cover=49.8463
							109:leaf=-0.00251616,cover=1.24908
							110:leaf=0.0135518,cover=48.5972
					38:[v77<8.53654] yes=67,no=68,missing=67,gain=4.7225,cover=4.24546
						67:leaf=-0.00786393,cover=2.24866
						68:leaf=0.00954688,cover=1.99679
				22:[v114<14.1413] yes=39,no=40,missing=39,gain=5.26042,cover=21.4439
					39:[v39<0.0688209] yes=69,no=70,missing=69,gain=5.16432,cover=11.7176
						69:leaf=0.0141142,cover=4.9837
						70:[v53<15.8515] yes=111,no=112,missing=111,gain=6.84595,cover=6.73391
							111:leaf=-0.00664837,cover=3.99168
							112:leaf=0.011258,cover=2.74223
					40:[v84<1.52325] yes=71,no=72,missing=71,gain=9.1521,cover=9.72627
						71:[v13<3.11496] yes=113,no=114,missing=113,gain=2.12678,cover=4.73656
							113:leaf=-0.00272768,cover=1.24733
							114:leaf=0.0103044,cover=3.48923
						72:[v13<4.56287] yes=115,no=116,missing=115,gain=3.9331,cover=4.98971
							115:leaf=-0.0159353,cover=3.24406
							116:leaf=0.0012408,cover=1.74565
	2:[v50<1.89641] yes=5,no=6,missing=5,gain=36.9385,cover=657.657
		5:[v28<14.505] yes=11,no=12,missing=11,gain=15.9251,cover=373.636
			11:[v110<1.5] yes=23,no=24,missing=23,gain=8.74166,cover=371.637
				23:[v114<15.7986] yes=41,no=42,missing=41,gain=9.64805,cover=184.619
					41:[v1<3.28092] yes=73,no=74,missing=73,gain=7.48789,cover=146.76
						73:[v90<1.04772] yes=117,no=118,missing=117,gain=4.72332,cover=141.266
							117:leaf=0.00696853,cover=118.311
							118:leaf=0.0121429,cover=22.9553
						74:[v57<3.65609] yes=119,no=120,missing=119,gain=4.10975,cover=5.49434
							119:leaf=0.00616564,cover=1.99669
							120:leaf=-0.00914379,cover=3.49764
					42:[v10<0.284464] yes=75,no=76,missing=75,gain=4.01437,cover=37.8588
						75:leaf=-0.00258286,cover=1.24766
						76:[v18<0.84211] yes=121,no=122,missing=121,gain=2.26935,cover=36.6112
							121:leaf=0.014894,cover=31.6248
							122:leaf=0.00584929,cover=4.98638
				24:[v23<19.4703] yes=43,no=44,missing=43,gain=7.65344,cover=187.017
					43:[v41<8.38682] yes=77,no=78,missing=77,gain=7.01878,cover=184.022
						77:[v64<12.3556] yes=123,no=124,missing=123,gain=3.94687,cover=171.308
							123:leaf=0.0129293,cover=168.566
							124:leaf=0.000606881,cover=2.74236
						78:[v9<8.5592] yes=125,no=126,missing=125,gain=5.26202,cover=12.7141
							125:leaf=-0.00336839,cover=4.73803
							126:leaf=0.00911587,cover=7.97607
					44:[v104<3.18004] yes=79,no=80,missing=79,gain=2.89853,cover=2.99482
						79:leaf=0.00610852,cover=1.24607
						80:leaf=-0.0093978,cover=1.74875
			12:leaf=-0.0135182,cover=1.99927
		6:[v1<4.89942] yes=13,no=14,missing=13,gain=2.95479,cover=284.021
			13:[v28<12.3273] yes=25,no=26,missing=25,gain=1.80351,cover=282.275
				25:[v77<8.06622] yes=45,no=46,missing=45,gain=1.99914,cover=281.029
					45:[v9<9.78835] yes=81,no=82,missing=81,gain=0.230732,cover=237.476
						81:leaf=0.0160727,cover=200.905
						82:[v90<1.09449] yes=127,no=128,missing=127,gain=1.75267,cover=36.5716
							127:leaf=0.0136889,cover=34.5799
							128:leaf=0.00252282,cover=1.99161
					46:[v68<19.4017] yes=83,no=84,missing=83,gain=4.6538,cover=43.5527
						83:[v50<2.33659] yes=129,no=130,missing=129,gain=2.56515,cover=41.0602
							129:leaf=0.00858536,cover=14.4444
							130:leaf=0.0151259,cover=26.6157
						84:[v10<1.95843] yes=131,no=132,missing=131,gain=1.95051,cover=2.49247
							131:leaf=0.00604779,cover=1.24577
							132:leaf=-0.00714369,cover=1.2467
				26:leaf=0.00165371,cover=1.24591
			14:leaf=0.00129987,cover=1.74669
booster[11]
0:[v50<0.83853] yes=1,no=2,missing=1,gain=127.386,cover=1000.15
	1:[v110<1.5] yes=3,no=4,missing=3,gain=34.2815,cover=337.055
		3:[v50<0.420366] yes=7,no=8,missing=7,gain=19.4829,cover=186.792
			7:[v54<0.0749796] yes=15,no=16,missing=15,gain=14.5937,cover=75.1859
				15:[v86<1.14151] yes=31,no=32,missing=31,gain=9.21981,cover=45.2028
					31:[v14<10.0729] yes=57,no=58,missing=57,gain=10.2044,cover=41.7068
						57:[v91<2.5] yes=89,no=90,missing=89,gain=0.540231,cover=4.74158
							89:leaf=0.0037791,cover=1.49858
							90:leaf=0.0146844,cover=3.243
						58:[v79<8.5] yes=91,no=92,missing=91,gain=4.39239,cover=36.9652
							91:leaf=-0.00424701,cover=24.2347
							92:leaf=0.00280666,cover=12.7305
					32:leaf=0.0151469,cover=3.49602
				16:[v93<4.06555] yes=33,no=34,missing=33,gain=5.62628,cover=29.9831
					33:[v1<2.149] yes=59,no=60,missing=59,gain=4.40411,cover=6.7459
						59:[v52<7.5] yes=93,no=94,missing=93,gain=5.3026,cover=5.24656
							93:leaf=-0.011748,cover=2.74752
							94:leaf=0.00558301,cover=2.49904
						60:leaf=0.011793,cover=1.49934
					34:[v26<2.62029] yes=61,no=62,missing=61,gain=7.48289,cover=23.2372
						61:[v116<1.85881] yes=95,no=96,missing=95,gain=4.57305,cover=21.238
							95:leaf=-0.00186322,cover=4.4976
							96:leaf=-0.0136193,cover=16.7404
						62:leaf=0.00646697,cover=1.99923
			8:[v90<0.956288] yes=17,no=18,missing=17,gain=7.30269,cover=111.606
				17:[v85<1.66525] yes=35,no=36,missing=35,gain=9.77587,cover=76.1563
					35:[v1<0.0832592] yes=63,no=64,missing=63,gain=4.44329,cover=55.6771
						63:[v14<10.748] yes=97,no=98,missing=97,gain=4.05636,cover=51.4323
							97:leaf=0.00955362,cover=9.23117
							98:leaf=0.00242574,cover=42.2011
						64:leaf=0.0137642,cover=4.24477
					36:[v93<6.18613] yes=65,no=66,missing=65,gain=8.18242,cover=20.4792
						65:[v39<0.200718] yes=99,no=100,missing=99,gain=9.32048,cover=15.7345
							99:leaf=0.00329965,cover=5.74322
							100:leaf=-0.0119522,cover=9.99126
						66:[v29<9.50873] yes=101,no=102,missing=101,gain=3.58688,cover=4.74475
							101:leaf=0.0137651,cover=2.4961
							102:leaf=-0.001747,cover=2.24866
				18:[v32<2.22719] yes=37,no=38,missing=37,gain=8.62911,cover=35.4494
					37:[v54<0.0865958] yes=67,no=68,missing=67,gain=5.54305,cover=32.2024
						67:[v39<2.06753] yes=103,no=104,missing=103,gain=4.88277,cover=7.49061
							103:leaf=0.0057196,cover=6.24187
							104:leaf=-0.0112056,cover=1.24874
						68:[v2<10.958] yes=105,no=106,missing=105,gain=3.45544,cover=24.7118
							105:leaf=0.0130419,cover=22.7143
							106:leaf=-0.000439112,cover=1.99754
					38:[v103<5.12018] yes=69,no=70,missing=69,gain=1.65234,cover=3.24698
						69:leaf=0.00221026,cover=1.24884
						70:leaf=-0.0100698,cover=1.99813
		4:[v130<3.36498] yes=9,no=10,missing=9,gain=7.48316,cover=150.263
			9:[v50<0.155528] yes=19,no=20,missing=19,gain=7.32367,cover=137.788
				19:[v70<13.9501] yes=39,no=40,missing=39,gain=3.11538,cover=7.48934
					39:[v1<-0.0662369] yes=71,no=72,missing=71,gain=2.54939,cover=5.74407
						71:[v14<10.8759] yes=107,no=108,missing=107,gain=1.22432,cover=4.24498
							107:leaf=0.00627081,cover=1.24825
							108:leaf=-0.00295951,cover=2.99674
						72:leaf=-0.0122017,cover=1.49909
					40:leaf=0.00845773,cover=1.74527
				20:[v100<18.9396] yes=41,no=42,missing=41,gain=7.34227,cover=130.298
					41:[v68<19.3822] yes=73,no=74,missing=73,gain=4.61045,cover=116.336
						73:[v27<3.7973] yes=109,no=110,missing=109,gain=3.61822,cover=112.847
							109:leaf=0.0110725,cover=107.362
							110:leaf=0.00226509,cover=5.48501
						74:[v97<7.89782] yes=111,no=112,missing=111,gain=4.60198,cover=3.48969
							111:leaf=0.0103747,cover=1.244
							112:leaf=-0.00825989,cover=2.24569
					42:[v41<6.86425] yes=75,no=76,missing=75,gain=8.46816,cover=13.9618
						75:[v46<0.115902] yes=113,no=114,missing=113,gain=2.75331,cover=3.4956
							113:leaf=0.0018802,cover=1.24808
							114:leaf=-0.0142895,cover=2.24752
						76:[v77<8.45549] yes=115,no=116,missing=115,gain=4.13472,cover=10.4662
							115:leaf=0.0100926,cover=7.97032
							116:leaf=-0.00338308,cover=2.4959
			10:[v93<3.50674] yes=21,no=22,missing=21,gain=13.6559,cover=12.4758
				21:[v16<4.15132] yes=43,no=44,missing=43,gain=2.12614,cover=5.48551
					43:leaf=0.00129419,cover=1.74594
					44:leaf=0.0150239,cover=3.73957
				22:[v127<3.03969] yes=45,no=46,missing=45,gain=4.69779,cover=6.99029
					45:[v77<8.53138] yes=77,no=78,missing=77,gain=3.32368,cover=5.74358
						77:leaf=-0.0160908,cover=3.74707
						78:leaf=-0.000469682,cover=1.99652
					46:leaf=0.00614431,cover=1.24671
	2:[v50<1.85826] yes=5,no=6,missing=5,gain=37.4449,cover=663.093
		5:[v110<1.5] yes=11,no=12,missing=11,gain=11.9085,cover=372.174
			11:[v18<1.81073] yes=23,no=24,missing=23,gain=8.93947,cover=184.549
				23:[v32<2.99587] yes=47,no=48,missing=47,gain=4.97272,cover=180.303
					47:[v90<1.10095] yes=79,no=80,missing=79,gain=4.38561,cover=178.555
						79:[v41<7.95105] yes=117,no=118,missing=117,gain=6.35913,cover=158.608
							117:leaf=0.00871351,cover=145.128
							118:leaf=0.00141784,cover=13.4795
						80:[v46<3.80825] yes=119,no=120,missing=119,gain=4.19024,cover=19.9476
							119:leaf=0.0145217,cover=18.6992
							120:leaf=-0.00257515,cover=1.24841
					48:leaf=-0.00575427,cover=1.74819
				24:[v97<5.77805] yes=49,no=50,missing=49,gain=7.60325,cover=4.2455
					49:leaf=0.0106144,cover=1.24708
					50:leaf=-0.0127081,cover=2.99842
			12:[v97<10.1166] yes=25,no=26,missing=25,gain=3.36978,cover=187.625
				25:[v23<19.4989] yes=51,no=52,missing=51,gain=4.39589,cover=172.427
					51:[v26<3.05884] yes=81,no=82,missing=81,gain=3.6131,cover=170.68
						81:[v14<9.54746] yes=121,no=122,missing=121,gain=1.87945,cover=168.685
							121:leaf=0.00308944,cover=2.73884
							122:leaf=0.0128536,cover=165.946
						82:leaf=-0.000553283,cover=1.99508
					52:leaf=-0.00224428,cover=1.74711
				26:[v41<8.38112] yes=53,no=54,missing=53,gain=5.36992,cover=15.1983
					53:[v128<1.76451] yes=83,no=84,missing=83,gain=2.03591,cover=8.46528
						83:leaf=0.0011166,cover=1.74421
						84:[v24<2.5] yes=123,no=124,missing=123,gain=1.65993,cover=6.72107
							123:leaf=0.00169082,cover=1.24666
							124:leaf=0.0158423,cover=5.47441
					54:[v99<1.47909] yes=85,no=86,missing=85,gain=8.0003,cover=6.73303
						85:[v70<13.9761] yes=125,no=126,missing=125,gain=0.473461,cover=2.99472
							125:leaf=-0.00264631,cover=1.24735
							126:leaf=-0.0131284,cover=1.74737
						86:[v18<1.20963] yes=127,no=128,missing=127,gain=2.90046,cover=3.73832
							127:leaf=0.013468,cover=2.49086
							128:leaf=-0.00258816,cover=1.24746
		6:[v68<19.5062] yes=13,no=14,missing=13,gain=3.05259,cover=290.919
			13:[v77<9.96774] yes=27,no=28,missing=27,gain=1.83243,cover=285.94
				27:[v1<5.1665] yes=55,no=56,missing=55,gain=1.76037,cover=283.697
					55:[v90<1.40198] yes=87,no=88,missing=87,gain=1.26783,cover=282.449
						87:[v50<2.2867] yes=129,no=130,missing=129,gain=1.39761,cover=280.956
							129:leaf=0.0136054,cover=88.2555
							130:leaf=0.0160818,cover=192.7
						88:leaf=0.00328389,cover=1.49346
					56:leaf=0.00177986,cover=1.24755
				28:leaf=0.00390549,cover=2.24346
			14:[v99<1.24546] yes=29,no=30,missing=29,gain=3.8698,cover=4.9785
				29:leaf=-0.00404508,cover=1.99311
				30:leaf=0.0115252,cover=2.98539
booster[12]
0:[v47<4.5] yes=1,no=2,missing=1,gain=62.9974,cover=992.716
	1:[v31<2.5] yes=3,no=4,missing=3,gain=20.8172,cover=509.451
		3:[v12<6.48181] yes=7,no=8,missing=7,gain=13.3333,cover=315.943
			7:[v10<0.776806] yes=15,no=16,missing=15,gain=8.84836,cover=141.422
				15:[v95<1.08624] yes=29,no=30,missing=29,gain=5.68157,cover=50.043
					29:[v121<2.28191] yes=49,no=50,missing=49,gain=7.1021,cover=47.7958
						49:[v8<1.24665] yes=79,no=80,missing=79,gain=5.91287,cover=32.372
							79:leaf=0.00786556,cover=29.8778
							80:leaf=-0.00634337,cover=2.49426
						50:[v34<7.30647] yes=81,no=82,missing=81,gain=2.11349,cover=15.4238
							81:leaf=0.0166434,cover=13.1806
							82:leaf=0.00391668,cover=2.24316
					30:leaf=-0.00494118,cover=2.24713
				16:[v83<5.4307] yes=31,no=32,missing=31,gain=1.58825,cover=91.3792
					31:[v99<2.20407] yes=51,no=52,missing=51,gain=1.14654,cover=90.1333
						51:leaf=0.0148242,cover=88.6407
						52:leaf=0.00320343,cover=1.4926
					32:leaf=0.00172596,cover=1.24597
			8:[v15<1.71634] yes=17,no=18,missing=17,gain=7.26705,cover=174.521
				17:[v72<1.5] yes=33,no=34,missing=34,gain=4.75013,cover=92.8279
					33:[v68<19.2826] yes=53,no=54,missing=53,gain=4.63604,cover=53.2943
						53:[v10<1.77243] yes=83,no=84,missing=83,gain=3.37048,cover=52.047
							83:leaf=0.0068319,cover=40.353
							84:leaf=0.0133145,cover=11.694
						54:leaf=-0.00711947,cover=1.24728
					34:[v35<9.02267] yes=55,no=56,missing=55,gain=2.60004,cover=39.5336
						55:[v12<9.7133] yes=85,no=86,missing=85,gain=2.16111,cover=36.049
							85:leaf=0.0144036,cover=34.061
							86:leaf=0.00232006,cover=1.98803
						56:[v10<4.71554] yes=87,no=88,missing=87,gain=1.97999,cover=3.48456
							87:leaf=-0.00225501,cover=2.24243
							88:leaf=0.0102731,cover=1.24213
				18:[v57<3.10704] yes=35,no=36,missing=35,gain=7.0484,cover=81.6931
					35:[v41<7.67367] yes=57,no=58,missing=57,gain=6.87091,cover=6.98433
						57:[v12<6.811] yes=89,no=90,missing=89,gain=0.675347,cover=3.4942
							89:leaf=-0.0142848,cover=2.24676
							90:leaf=-0.00268282,cover=1.24744
						58:[v48<15.6799] yes=91,no=92,missing=91,gain=1.83307,cover=3.49013
							91:leaf=0.0100388,cover=2.24261
							92:leaf=-0.00260521,cover=1.24751
					36:[v100<18.8782] yes=59,no=60,missing=59,gain=8.72361,cover=74.7088
						59:[v8<2.54849] yes=93,no=94,missing=93,gain=6.07013,cover=65.2398
							93:leaf=0.00974366,cover=51.5377
							94:leaf=0.00208884,cover=13.702
						60:[v36<12.608] yes=95,no=96,missing=95,gain=7.07599,cover=9.46899
							95:leaf=0.00518147,cover=5.47877
							96:leaf=-0.0106986,cover=3.99022
		4:[v12<10.7459] yes=9,no=10,missing=9,gain=3.44753,cover=193.508
			9:[v10<0.579869] yes=19,no=20,missing=19,gain=1.80971,cover=191.02
				19:leaf=0.00142445,cover=1.24346
				20:[v100<19.7566] yes=37,no=38,missing=37,gain=2.09939,cover=189.777
					37:[v127<6.48695] yes=61,no=62,missing=61,gain=1.99265,cover=184.064
						61:leaf=0.015219,cover=178.101
						62:[v11<15.2648] yes=97,no=98,missing=97,gain=4.0973,cover=5.96304
							97:leaf=0.0114682,cover=4.47045
							98:leaf=-0.00485035,cover=1.49259
					38:[v72<1.5] yes=63,no=64,missing=64,gain=3.86316,cover=5.71233
						63:leaf=-0.0047895,cover=1.49233
						64:[v118<8.84168] yes=99,no=100,missing=99,gain=1.17406,cover=4.22
							99:leaf=0.013818,cover=2.9783
							100:leaf=0.00139288,cover=1.2417
			10:[v11<15.2166] yes=21,no=22,missing=21,gain=0.872369,cover=2.48787
				21:leaf=-0.00294643,cover=1.24436
				22:leaf=0.00602384,cover=1.24351
	2:[v66<2.5] yes=5,no=6,missing=5,gain=57.9811,cover=483.265
		5:[v12<6.22309] yes=11,no=12,missing=11,gain=29.7891,cover=361.115
			11:[v8<5.59003] yes=23,no=24,missing=23,gain=8.62699,cover=66.4453
				23:[v35<10.6595] yes=39,no=40,missing=39,gain=5.67035,cover=64.4484
					39:[v10<0.4814] yes=65,no=66,missing=65,gain=6.06694,cover=61.7045
						65:leaf=-0.00354268,cover=1.99842
						66:[v27<4.00818] yes=101,no=102,missing=101,gain=5.8738,cover=59.7061
							101:leaf=0.0131739,cover=58.2092
							102:leaf=-0.00446235,cover=1.49687
					40:[v45<10.7768] yes=67,no=68,missing=67,gain=2.43686,cover=2.7439
						67:leaf=-0.00837681,cover=1.49802
						68:leaf=0.00606596,cover=1.24588
				24:leaf=-0.00700119,cover=1.99685
			12:[v10<1.6302] yes=25,no=26,missing=25,gain=25.7985,cover=294.67
				25:[v12<6.49873] yes=41,no=42,missing=41,gain=14.4269,cover=221.42
					41:[v95<0.597904] yes=69,no=70,missing=69,gain=6.39514,cover=92.0393
						69:[v15<1.6646] yes=103,no=104,missing=103,gain=11.1585,cover=60.1179
							103:leaf=0.00488519,cover=47.8905
							104:leaf=-0.00550138,cover=12.2274
						70:[v41<7.95105] yes=105,no=106,missing=105,gain=9.60991,cover=31.9214
							105:leaf=0.0117778,cover=22.1884
							106:leaf=-5.60979e-05,cover=9.73306
					42:[v21<7.10975] yes=71,no=72,missing=71,gain=10.7607,cover=129.38
						71:[v48<16.4968] yes=107,no=108,missing=107,gain=10.2179,cover=72.6895
							107:leaf=-0.00375853,cover=70.1928
							108:leaf=0.0138251,cover=2.49674
						72:[v114<15.5674] yes=109,no=110,missing=109,gain=5.37571,cover=56.6907
							109:leaf=0.00369953,cover=52.4438
							110:leaf=-0.00698306,cover=4.24688
				26:[v12<7.01785] yes=43,no=44,missing=43,gain=7.36393,cover=73.2503
					43:[v11<16.0821] yes=73,no=74,missing=73,gain=4.7194,cover=30.8614
						73:[v91<4.5] yes=111,no=112,missing=111,gain=1.33042,cover=28.3687
							111:leaf=0.015527,cover=17.1681
							112:leaf=0.00905403,cover=11.2006
						74:[v103<4.77207] yes=113,no=114,missing=113,gain=5.35624,cover=2.49279
							113:leaf=0.010392,cover=1.24423
							114:leaf=-0.0114531,cover=1.24855
					44:[v12<7.14622] yes=75,no=76,missing=75,gain=6.36466,cover=42.3889
						75:[v10<2.07877] yes=115,no=116,missing=115,gain=8.39968,cover=8.9806
							115:leaf=-0.00918336,cover=5.24673
							116:leaf=0.00850545,cover=3.73387
						76:[v57<3.94985] yes=117,no=118,missing=117,gain=7.22802,cover=33.4083
							117:leaf=0.0034087,cover=19.708
							118:leaf=0.0129248,cover=13.7003
		6:[v28<13.251] yes=13,no=14,missing=13,gain=7.0634,cover=122.15
			13:[v10<0.12035] yes=27,no=28,missing=27,gain=3.51359,cover=120.901
				27:[v91<2.5] yes=45,no=46,missing=45,gain=0.882077,cover=3.742
					45:leaf=0.00608353,cover=1.99483
					46:leaf=-0.00202051,cover=1.74717
				28:[v64<10.7013] yes=47,no=48,missing=47,gain=1.60567,cover=117.159
					47:[v10<1.35667] yes=77,no=78,missing=77,gain=0.6209,cover=115.165
						77:[v12<6.70922] yes=119,no=120,missing=119,gain=2.31231,cover=69.9452
							119:leaf=0.0129845,cover=60.9654
							120:leaf=0.0063459,cover=8.97979
						78:[v12<7.13801] yes=121,no=122,missing=121,gain=3.75513,cover=45.2198
							121:leaf=0.0175268,cover=29.2901
							122:leaf=0.0100871,cover=15.9297
					48:leaf=0.00276018,cover=1.99396
			14:leaf=-0.00678548,cover=1.24905
booster[13]
0:[v47<4.5] yes=1,no=2,missing=1,gain=62.512,cover=992.449
	1:[v129<12] yes=3,no=4,missing=4,gain=12.5012,cover=515.154
		3:[v103<8.73148] yes=7,no=8,missing=7,gain=4.30788,cover=203.959
			7:[v14<9.85956] yes=15,no=16,missing=15,gain=2.81233,cover=202.712
				15:leaf=0.000929279,cover=1.74038
				16:[v86<1.8813] yes=27,no=28,missing=27,gain=2.48372,cover=200.972
					27:[v14<16.3364] yes=49,no=50,missing=49,gain=1.18257,cover=194.756
						49:[v122<10.7857] yes=87,no=88,missing=87,gain=0.590122,cover=193.267
							87:leaf=0.0146145,cover=191.525
							88:leaf=0.00462765,cover=1.74155
						50:leaf=0.00301921,cover=1.48962
					28:[v125<17.5] yes=51,no=52,missing=51,gain=4.85008,cover=6.21556
						51:leaf=-0.00734576,cover=1.24467
						52:[v103<4.68641] yes=89,no=90,missing=89,gain=1.23875,cover=4.97088
							89:leaf=0.00255513,cover=1.99044
							90:leaf=0.0138762,cover=2.98045
			8:leaf=-0.00264476,cover=1.24651
		4:[v86<1.39629] yes=9,no=10,missing=9,gain=7.97595,cover=311.196
			9:[v10<0.776806] yes=17,no=18,missing=17,gain=5.26196,cover=252.475
				17:[v34<8.96536] yes=29,no=30,missing=29,gain=8.81728,cover=42.0482
					29:[v53<14.7578] yes=53,no=54,missing=53,gain=5.11214,cover=39.3075
						53:[v14<9.77524] yes=91,no=92,missing=91,gain=4.73319,cover=22.3957
							91:leaf=-0.0026312,cover=4.98169
							92:leaf=0.00792378,cover=17.414
						54:[v37<1.65388] yes=93,no=94,missing=93,gain=2.48914,cover=16.9118
							93:leaf=0.0144318,cover=15.1682
							94:leaf=0.00114625,cover=1.74358
					30:[v24<4.5] yes=55,no=56,missing=55,gain=1.89854,cover=2.74075
						55:leaf=-0.0125776,cover=1.49632
						56:leaf=0.00149862,cover=1.24443
				18:[v36<16.6784] yes=31,no=32,missing=31,gain=3.55949,cover=210.427
					31:[v62<1.5] yes=57,no=58,missing=58,gain=3.67685,cover=208.436
						57:[v24<3.5] yes=95,no=96,missing=95,gain=4.30568,cover=126.276
							95:leaf=0.0134492,cover=49.2046
							96:leaf=0.00920805,cover=77.0709
						58:[v53<16.3308] yes=97,no=98,missing=97,gain=2.93825,cover=82.1602
							97:leaf=0.0149885,cover=70.9718
							98:leaf=0.00811811,cover=11.1883
					32:leaf=-0.000779474,cover=1.99127
			10:[v120<0.842255] yes=19,no=20,missing=19,gain=9.71388,cover=58.7206
				19:[v28<3.6316] yes=33,no=34,missing=33,gain=8.11996,cover=9.4625
					33:leaf=0.0124008,cover=1.98838
					34:[v9<9.29485] yes=59,no=60,missing=59,gain=5.78953,cover=7.47413
						59:leaf=-0.0155717,cover=2.99455
						60:[v13<4.41804] yes=99,no=100,missing=99,gain=5.76882,cover=4.47958
							99:leaf=-0.00738496,cover=2.74175
							100:leaf=0.0117262,cover=1.73783
				20:[v46<0.0954147] yes=35,no=36,missing=35,gain=7.07675,cover=49.2581
					35:leaf=-0.00858868,cover=1.49543
					36:[v4<3.13017] yes=61,no=62,missing=61,gain=5.66732,cover=47.7626
						61:[v14<12.0435] yes=101,no=102,missing=101,gain=5.47206,cover=13.2022
							101:leaf=0.00830371,cover=8.21641
							102:leaf=-0.00411515,cover=4.98578
						62:[v14<14.6025] yes=103,no=104,missing=103,gain=4.53288,cover=34.5604
							103:leaf=0.0125201,cover=32.8196
							104:leaf=-0.00268858,cover=1.74081
	2:[v10<1.6302] yes=5,no=6,missing=5,gain=35.2148,cover=477.294
		5:[v34<5.64061] yes=11,no=12,missing=11,gain=18.0998,cover=362.167
			11:[v20<18.6234] yes=21,no=22,missing=21,gain=9.05362,cover=147.168
				21:[v16<5.41945] yes=37,no=38,missing=37,gain=10.2136,cover=134.438
					37:[v80<2.82244] yes=63,no=64,missing=63,gain=11.475,cover=108.262
						63:[v112<11.5] yes=105,no=106,missing=105,gain=7.93751,cover=96.0359
							105:leaf=0.000942897,cover=59.3779
							106:leaf=0.00683117,cover=36.6579
						64:[v14<11.604] yes=107,no=108,missing=107,gain=6.00448,cover=12.2258
							107:leaf=0.00110212,cover=5.48609
							108:leaf=-0.0123892,cover=6.7397
					38:[v34<2.93059] yes=65,no=66,missing=65,gain=7.29238,cover=26.1763
						65:[v125<65.5] yes=109,no=110,missing=109,gain=3.53647,cover=3.74217
							109:leaf=0.00428047,cover=2.24431
							110:leaf=-0.0117444,cover=1.49786
						66:[v34<5.27609] yes=111,no=112,missing=111,gain=4.93334,cover=22.4342
							111:leaf=0.0127987,cover=19.4439
							112:leaf=-0.000721478,cover=2.99028
				22:[v124<0.0271024] yes=39,no=40,missing=39,gain=7.00654,cover=12.73
					39:[v92<0.83554] yes=67,no=68,missing=67,gain=6.40327,cover=5.2402
						67:[v70<13.1043] yes=113,no=114,missing=113,gain=2.25165,cover=3.99114
							113:leaf=-0.000574011,cover=1.49585
							114:leaf=0.0137212,cover=2.49529
						68:leaf=-0.0111611,cover=1.24906
					40:[v14<12.0582] yes=69,no=70,missing=69,gain=7.24761,cover=7.48977
						69:leaf=-0.0155922,cover=5.74287
						70:leaf=0.00500949,cover=1.7469
			12:[v120<0.951241] yes=23,no=24,missing=23,gain=8.87855,cover=214.999
				23:[v113<1.5] yes=41,no=42,missing=41,gain=6.43728,cover=146.935
					41:[v112<9] yes=71,no=72,missing=71,gain=2.3804,cover=4.4859
						71:leaf=0.00390605,cover=2.24315
						72:leaf=-0.00835841,cover=2.24275
